GO:0000015 1.0409393 -0.50943786 -1.3807279 -1.793524 -1.6498351 -1.6524193 2.3943791 0.84797686 -2.4539847 1.7738652 -1.7992456 -0.5339867 -0.51657003 -4.1038194 0.2898959 -4.6661325 -1.9779211 -1.4279982 1.6025271 -3.8898826 1.8496597 1.424427 -1.6144422 1.2498847 -1.4026582 -1.5336185 -0.80820036 1.574217 1.5975736 -2.390115 1.2375892 0.52640975 -2.7891567 -6.3502536 -3.8639119 2.3406968 2.988086 3.2192614 5.3379073 11.359357 -0.73262554 -6.47536 7.315857 -4.98619 -4.4069834 2.0001054 12.199882 14.746121 -27.803698 4.163968
GO:0000109 2.7028377 -0.7857874 -0.7990331 1.431158 -0.30919498 -1.2403687 -0.9048474 -0.07444186 -0.7348418 -1.8538404 0.9433215 -0.98009855 0.83633995 -0.023910705 0.26030892 -0.024257872 -2.389228 0.32047534 -2.1790836 0.2080997 1.2682053 0.4206443 0.23306826 -1.4685763 -1.733484 0.017745372 -1.294974 -0.9766555 0.27064058 0.96081644 -0.46476164 4.529526 0.98721325 -4.09787 -1.7041291 1.2410599 5.260171 -9.304848 6.290166 3.8012614 2.750605 1.5259653 2.1810608 -1.2101474 -8.517023 2.792618 9.218209 5.938687 -11.980275 36.7988
GO:0000110 3.558069 -1.04332 -2.0631254 2.1160126 -1.0433615 -1.2218012 -0.09347653 0.047558136 -0.7581695 -1.7831248 0.44561166 -1.3009055 0.92655563 0.84437066 1.0720284 0.07312948 -3.942213 -1.8446224 -2.4526434 0.6602896 0.86771274 0.92493504 1.1661872 -1.8088019 -0.28242013 0.27307114 -1.883148 -0.5828157 0.84367985 1.0597335 -0.37108412 4.094228 1.7536252 -3.451143 -3.2343667 1.2361757 4.348027 -8.669255 4.9826117 1.9098128 4.1219673 1.6879145 3.6354182 -0.76282865 -9.677895 6.023207 8.131146 6.278361 -16.166693 25.00276
GO:0000111 2.7392356 -1.0507357 -2.3263679 2.1851282 -0.26279813 -1.3469329 -0.7766994 0.015179068 0.78678036 -1.0850866 0.08169383 -0.28894126 1.061596 -0.123250544 0.37891686 1.1990064 -2.7665331 -0.30740222 -0.65188867 -0.39386314 0.51436305 -0.92939156 0.14289443 -1.0752925 -3.228338 -1.465989 -0.96383095 -3.2371476 0.89705205 2.085911 0.31574693 0.0825833 -3.001703 -2.0147927 -0.37565932 2.1961656 7.320509 -9.2396755 8.619959 12.7762 -2.0905352 1.9086637 -0.97606003 -2.3455226 -2.4124742 0.90186906 10.788681 12.950069 -27.340311 2.935643
GO:0000112 -0.18983321 -1.541911 1.1631767 0.14993463 0.62057304 0.64297736 -0.8896468 -1.0357507 -1.1954837 3.1948297 4.2230053 0.9620663 3.1668792 -2.8971586 -0.32518163 3.5641303 -0.21720947 -1.4482337 -4.5217304 -2.6967673 1.7906 0.0049216193 -1.6664412 -0.48893675 -1.5921768 2.5971587 -1.3043705 -1.6409473 0.97777027 -0.7993186 0.5344016 5.4038877 -1.6723809 -12.474124 -3.093562 -1.3690537 3.109689 -4.9271646 5.463524 2.1737123 1.4547652 1.0927615 0.002734276 -2.759905 -9.146198 2.2557662 9.338639 3.250652 -3.746695 67.91326
GO:0000113 4.167804 -0.95691806 -1.7773998 1.5342276 0.5725312 -0.14000739 -2.3186562 0.46873727 -0.59105945 -0.27624017 0.6568766 -0.21627162 1.2535427 0.19052035 -0.0065653604 0.5674108 -3.3949826 1.6844859 -1.589955 -0.218918 0.798838 -0.40050122 -0.74895483 -3.0673811 -4.3247833 0.012205295 -3.6258843 -0.7936885 0.3270948 0.9354233 -0.68781453 5.2338986 1.1644 0.5018551 -4.0773573 0.7715398 8.874711 -15.303531 6.910289 3.1928194 4.211899 2.5489657 3.347785 1.6327884 -9.432294 6.425943 7.246928 9.238178 -19.870968 3.1091402
GO:0000118 1.5654912 -2.3908632 -0.9770227 2.118756 -0.07427767 -0.22164918 -0.14361309 0.29612416 -0.2687387 -1.0437055 0.8746869 -0.60889196 0.6258926 0.35262772 0.18026952 -0.5923393 -1.0343394 0.4697742 -0.13428193 -0.8914862 0.4493039 -0.20598517 -0.7090924 -0.17811994 -0.3423188 1.8233143 0.8526987 -0.9271042 0.5637637 -1.3427786 0.53990436 2.8507855 -3.1696205 -12.343661 -2.2122986 -0.3237049 2.2003841 -1.3756331 3.4610531 4.62049 -0.060562465 -1.4929929 2.8828137 -4.3813896 -8.787089 2.7077749 12.630111 9.215488 -13.896844 47.05881
GO:0000120 -1.0912279 -1.2536497 0.6628613 2.6528857 -0.42590204 -0.4493158 -0.9077222 0.87026685 -2.0728734 1.1712854 0.21783195 -0.41368577 4.718976 -2.5202951 3.2309022 4.7216806 5.5480614 -1.3124342 0.61348486 0.09083506 -1.2803948 3.5531158 0.86125135 1.3484831 0.4934257 5.27151 2.884523 -1.3425033 -0.12932129 -0.49744138 0.3750144 2.9230523 -2.4000964 -5.2946224 -3.491466 0.11017652 2.6531062 -10.47941 2.6318843 -0.011764226 4.7223067 5.631403 0.24006385 -0.12088917 -8.465904 5.703708 7.7942333 7.457322 -19.305666 2.514244
GO:0000123 2.6771128 -2.7234437 -4.617985 2.9805114 -0.71903265 -1.4166297 -2.2041383 1.5314475 -1.7095495 -3.2365506 0.02418678 -1.0837085 3.418125 0.4369829 0.89544874 -0.95618355 0.34962457 -1.4390734 0.98391896 -0.6033542 -0.5069179 0.036889758 -0.3198758 -0.24796648 -0.2757235 1.6995693 1.3419915 -1.1992967 0.26431486 -1.8172796 0.6553184 3.5186214 -1.5822953 -9.769961 -1.8562466 0.83583575 1.6612856 0.2968799 2.5898294 6.8246703 0.43510455 -3.5236056 7.6600413 -5.0182433 -5.205013 4.4179063 12.312132 13.508996 -23.576202 18.857656
GO:0000124 0.4433696 -1.1140902 -2.0830936 1.4280471 1.623959 -0.1662687 0.25606567 0.6422675 -0.39551264 0.56989014 2.345102 -1.379786 4.3824973 0.14837416 1.3603785 1.8556019 -3.9859035 -0.9783235 1.1255344 0.032360815 -0.81651074 -0.35598424 1.7590787 -0.76569676 1.3212988 1.8492955 1.3222169 -2.729481 -1.2846775 0.8074179 -0.09441224 2.6137807 0.6162384 -7.47478 0.18831421 0.69120276 2.433933 -1.3418199 3.2962837 6.7934217 -0.279203 -1.4405468 5.1894116 -4.478695 -2.4679837 2.575476 11.175051 10.303866 -16.656553 39.96386
GO:0000125 5.0857496 -2.6132073 -5.889867 2.477486 1.6735483 0.19134851 -1.162132 2.31577 -0.43636727 -1.2165649 1.628491 -1.6546993 4.794739 3.1340652 1.37955 -0.6600927 -2.294541 -1.7255257 1.1610254 -1.3098521 -2.5037987 1.5959748 0.18001014 -0.668329 0.5829592 3.4496598 2.1979163 -1.4298844 -0.84696513 -2.3711424 0.45909578 3.6078093 -1.5124952 -15.021885 -2.8799057 -2.038263 0.9086024 -1.3979484 4.2098465 4.871882 2.4815755 0.06501193 2.0532813 -7.1783605 -4.4172754 -1.0141301 12.086493 5.5780983 -12.30642 61.8518
GO:0000126 -1.1136167 0.7864246 2.0807817 0.89667445 0.078583814 1.7517364 0.037591986 1.1867853 -2.2567356 4.0683727 3.0124066 1.566231 1.8257596 -3.7628243 0.95776117 4.8746448 3.1809447 -2.6999967 -2.504868 -1.7061701 -0.9670001 3.3255696 0.07408121 4.480364 3.120767 6.9722633 5.367629 -0.7888788 0.8553591 0.8568152 7.965633 1.5386398 -4.561396 -7.70653 -3.0626838 0.31450242 -0.7211094 -6.480957 -1.9135346 -2.8508346 5.085385 0.10332364 -7.160961 -0.76196325 -6.8171687 7.260951 9.249444 11.895213 -24.44221 2.9249597
GO:0000127 -0.82393944 1.132923 0.6615319 -1.5118032 -1.2056214 1.6380194 -0.6680315 1.8897911 -2.871532 3.573639 1.6435128 1.9218751 0.9181793 -1.2528656 0.14535409 3.9331777 1.4466658 -5.266305 -3.6039128 -2.2751892 -1.4523681 3.0383372 1.3943702 5.868525 6.02332 6.1520786 5.122779 -0.96104807 2.9049704 -3.07188 0.8417147 3.9621727 -2.4459622 -12.045107 -4.9009166 -2.4785943 -0.83020073 -5.3233924 3.2411778 -0.2886784 6.437984 6.420608 -1.5604291 -3.5580757 -2.5669284 0.003998435 8.288014 2.4940093 -15.674408 23.157759
GO:0000131 0.9936435 -0.42839035 -2.1070192 2.661482 2.5855565 -0.11603647 -0.2423224 2.4502373 1.4652091 -1.5820372 0.32649902 -0.1501091 1.5519525 -0.7862338 1.8638563 0.39484552 1.0573794 -1.263869 -1.5098335 2.815913 1.0817466 -0.5739822 -0.6914417 -1.6172588 3.9840095 -2.8734493 -2.742948 4.3670855 -0.34771484 -1.1179584 0.5903314 -1.0092046 -2.9286537 -0.91920686 -2.7257264 -5.924843 2.7017717 3.7155006 5.5747933 -1.6589242 1.772465 -0.43149933 3.1557138 -0.22901444 -7.799375 7.044799 3.2523491 4.9918036 -14.751325 2.4092534
GO:0000133 -1.9144154 -1.9936644 -1.4441683 0.71043056 1.5340524 0.93450445 0.82582295 -0.4641266 -1.7908 -0.19257163 1.2707516 -0.4398175 -0.3119905 -0.01909722 0.3498294 1.0589517 0.542531 -0.9793549 -0.99810904 -2.0360186 -0.16099101 -0.9097059 1.3854047 0.5150249 -0.3745342 0.14503393 0.031086966 -1.7729249 0.24855219 -2.8389282 0.8655357 -0.2988191 1.0728586 -4.346672 -2.3763683 2.7927363 5.936585 3.8324504 5.413055 -4.5194836 -0.3633098 -2.6953428 3.2487762 -1.9322033 -7.29826 7.397648 2.8955476 -0.06385063 -16.139013 1.2550389
GO:0000136 2.4598093 -2.8986492 -0.2185174 2.18312 -1.5339342 -0.27838716 0.43242162 1.4242091 1.4934968 0.30650938 -0.3952044 0.28269073 1.0118313 0.12846185 0.06940808 0.527835 -1.7066588 -0.05770872 0.72829676 -0.4036529 0.399365 -3.0546222 -0.16196707 3.0268474 1.6369032 0.8371885 5.115266 -2.097957 2.813999 -3.7184932 -10.673312 1.6100327 -5.412535 -2.2349207 1.1761707 -7.108702 -2.233182 0.5715735 8.797848 6.2589264 8.43624 -13.605686 -5.108919 -6.067494 2.0862331 1.4885665 7.839595 12.43948 -26.223055 4.1642313
GO:0000137 3.0238745 0.6911027 -1.8328118 -0.63083696 -3.413166 0.41918525 -0.47528422 -0.3483727 2.7188888 0.73202276 -4.2033396 1.6353656 4.2055306 1.7156836 0.63473296 1.002304 -1.6214341 0.004534791 0.060450837 0.025055757 -1.4130762 -1.619437 -0.7157393 -0.90918666 -0.66106457 -0.9365716 1.1236693 -1.9360936 0.5656372 -3.45889 -6.169172 1.7204714 -3.651346 -7.225548 -0.8387974 -5.617247 -1.7830083 2.6337552 11.010574 6.0785317 6.0203166 -8.621184 -2.181719 -3.986538 -4.987878 3.697189 7.293793 7.4270954 -16.776756 30.062815
GO:0000138 1.2702444 1.7223068 -1.8493696 -2.241101 -2.5492184 0.88870215 0.15680797 -1.7565473 2.2742836 1.3153468 -4.268091 2.4069736 4.0679407 1.7293769 0.5136941 0.43137622 -2.0245826 1.0442423 -1.0635318 0.3752104 -1.2405723 -1.9207106 -1.6411524 -0.84711695 -0.9496382 -1.4035518 -0.75948703 -1.3663825 0.77535754 -1.6993297 0.7354008 2.210148 -1.3126653 -7.807769 0.18395418 -4.6223283 -1.2173887 2.243947 5.636202 0.27442515 2.0264769 -2.0541837 3.3075967 -3.337277 -13.117282 4.9190392 9.682835 4.7095795 -7.0060883 65.2157
GO:0000139 0.95105904 -2.5124738 -0.7604472 0.3976011 -0.60032535 0.96921533 1.7513814 -0.2628486 1.5112852 1.5607251 -0.5011353 0.6376016 1.4691135 0.35603312 -3.552745 0.6208625 -3.2244563 0.79601234 1.5942805 0.36432853 0.3638844 -3.8938248 -2.2099915 7.8264036 2.4617822 0.8231443 5.838864 -0.4510516 5.2716713 -1.705909 0.934597 1.4030203 -2.3541205 5.402582 4.8016195 -13.50674 -5.4316015 0.5024008 1.7906536 -8.25905 4.364528 2.0731435 4.563456 -5.545019 -5.3627496 2.7694583 8.196836 5.448951 -13.568218 33.977222
GO:0000142 -2.299293 1.4154537 1.0973744 0.33485392 4.159329 -2.128729 -0.24985828 1.7290764 2.5611007 0.27058327 -1.7120879 2.4192772 0.85230696 -0.3328291 2.3916144 2.4587662 -1.6987774 -1.5560998 2.4421463 1.8487794 1.272441 -1.3315248 2.4155052 -1.1931202 1.6477842 -0.5872443 -1.9206123 -2.2419243 -1.5433314 0.8018599 -0.61201864 1.4826308 -0.9757749 2.2396402 -1.6921973 -9.250236 -5.963851 -2.7956684 -3.9747412 8.845405 -1.6199425 -0.4317141 1.3778481 -12.470032 -3.2724113 14.037034 -9.703493 -23.045536 -16.310259 2.0439105
GO:0000144 -0.8788937 -2.5505536 -1.5774876 3.6628523 2.6963322 -0.7415558 -0.65897566 -2.5805488 -0.3188941 1.3454452 -3.593723 -0.106076196 3.626507 3.6607223 2.590062 4.7217855 -3.9042337 0.13905546 5.842489 -0.25589645 -3.8382792 -1.1062586 4.305584 -0.6077299 2.3736296 -0.44306427 -0.054434028 -2.2444735 -2.253604 0.27199277 -0.5015183 0.40850765 1.2522389 -1.5559932 -1.577046 1.806236 0.20298888 0.2853976 1.3075427 1.8570341 3.180493 1.5949097 1.0751728 -3.1878772 -4.130747 6.7868037 -2.6693072 -9.234686 -11.800566 1.7964263
GO:0000145 -3.77762 2.7130108 2.6615152 3.147714 3.5764077 -0.039248172 1.9115413 1.4586456 -1.4587785 -0.08721946 -0.047536153 -0.75728214 0.5531601 -0.060347773 4.764562 1.7747145 -3.8331494 -0.6036603 5.090881 2.2220733 2.9749124 -4.612524 6.5947347 2.8570554 3.152297 1.4841784 -0.53075856 -4.887133 -0.64532244 0.7189576 -0.19904055 3.0065403 -2.0386786 -3.4712195 -7.3643217 -8.523299 -0.908154 4.578981 9.068036 -0.98017913 4.8592877 -0.19838172 4.5116453 0.8351851 -11.995289 9.243101 6.8538237 6.977581 -21.523684 2.6636817
GO:0000148 -1.2852516 0.4037875 0.18943009 -0.20862775 1.1807256 -0.5487838 1.319638 1.5075994 -0.805925 -1.2573938 0.27876538 1.0237333 -2.8522148 -2.0425234 0.540134 -2.1391814 0.49285924 -0.96283025 -1.9800045 -0.14541209 3.029108 0.37567884 -1.4695576 -1.7768903 -0.8342912 -2.037396 -2.166083 2.2069457 -0.40673962 -0.03678288 7.746134 2.89881 -1.5536488 -6.291053 -1.3858492 -5.2228413 -0.6927505 4.1047153 2.9297597 0.13968325 7.1717873 -1.5973907 8.185623 11.791901 11.3628435 27.3538 -6.1340904 19.453794 -27.884531 6.859585
GO:0000151 1.9956343 -0.39781657 0.09522295 0.73606485 -0.9914231 -1.2158567 -0.17929074 0.34486657 -0.72792894 -1.7062049 0.41324517 -1.2544522 -0.38049075 -0.0064919107 0.08217604 0.94225466 -1.2260243 -0.62189156 -0.23985028 0.6290549 0.6924417 0.06872869 -0.383854 -1.5661389 1.3389795 -0.42716265 -0.880327 2.714086 0.6936683 -1.3618327 0.86441386 2.0289469 -1.4212656 -7.6256814 -3.6262212 0.39836502 4.798705 -1.4303995 5.4054284 7.460732 2.2270687 -0.6395885 5.3093514 -0.2699254 -3.9958944 6.600413 8.2700815 13.305305 -24.071096 7.731374
GO:0000152 1.7314343 -0.9615208 -0.52459395 4.0748396 0.332501 -0.78076017 -1.4285872 0.07424527 -1.8697644 -1.9116566 -0.17474675 -1.1400257 2.9841206 0.34268007 1.2060196 1.0676783 -1.4539148 1.0022327 1.3660259 0.5861296 -0.44644317 -0.6493314 0.7784889 -1.4556835 -0.22101831 1.209082 0.13461202 -0.8453783 -1.0116174 -0.41289428 0.26542076 2.9534104 -0.6995034 -10.8856945 -3.0011945 0.14287035 2.1088839 -0.44530064 3.1571681 3.1333632 1.3569971 -2.2141821 4.7673955 -2.6507351 -11.409085 5.4923606 11.437398 9.061655 -13.248598 46.246536
GO:0000153 0.62109923 -0.1739962 -0.7672596 1.5333259 -0.97269034 -1.5802976 -2.1736076 0.44795752 -0.027071808 -1.6401613 -1.2105205 0.8664255 0.519204 0.12615013 0.82322687 -0.530755 0.91533595 0.0022577231 0.008818393 0.01978095 1.0772053 -0.26084042 -0.40410808 -0.39729238 -1.1726122 0.49424195 -0.39546403 -0.38955265 0.45867184 -2.2730534 1.1071365 2.4675872 -3.4727712 -8.869394 -4.013257 0.47405133 2.1665258 2.6980662 4.9375587 7.2615004 0.41807166 -4.965791 6.466654 -2.8229373 -8.866951 6.0773697 11.168977 13.727957 -24.630873 3.4587243
GO:0000159 1.9846696 -0.13298301 2.119918 -3.36296 1.1219579 -1.2394083 -2.736537 0.66074324 2.6375754 1.362268 0.90614015 0.5095003 -1.1654612 4.7777276 -0.21123186 -2.849189 -0.9006114 1.0237701 -1.2893685 -2.5767858 -1.7991776 0.046296325 1.2223722 0.07888146 -0.15742862 1.3469261 -0.8448293 2.4569187 -2.1958873 -0.005252515 -0.1386966 0.14733726 0.7795126 -5.702416 -1.335711 1.5055852 1.9081626 2.4537485 4.2030687 7.7524753 0.11972394 -2.463162 2.8772295 -3.604025 -2.8948047 0.5155293 8.889781 8.0089035 -16.081844 29.773193
GO:0000164 -0.9011799 -0.0892369 0.32290915 1.2568476 1.5549706 -2.6779373 -2.6361716 2.3675532 -0.4396228 -2.7422798 -1.015802 0.65281117 -0.07257127 -2.0741165 1.4261988 -1.6366194 2.3804722 0.85117775 -1.8670542 1.0198464 0.728078 0.52913433 1.4894525 1.8629068 0.0017151354 0.46558607 -1.4064283 -0.4340847 -0.46961924 0.19244316 0.30067256 1.5420071 -1.1549073 -1.3154477 0.28872073 0.07559383 0.9648107 4.636964 7.0758395 9.676401 -1.703395 -4.6948533 5.5932846 -3.1169136 0.9345142 1.8385462 8.643102 11.974917 -24.91409 2.4707096
GO:0000172 0.78277975 1.5815817 0.5677646 2.8604012 0.6031025 0.22525571 3.2175198 1.4704336 0.18651399 1.8571771 -1.6372824 -1.7095642 0.7777063 -0.52230114 2.0234454 2.33924 1.9037019 0.45865527 3.3561559 1.9376227 -1.7363837 4.981072 2.888213 -0.8045656 1.3935646 4.4386964 2.1884718 -0.7541492 -2.457788 -0.9003133 -0.22425985 3.2026412 -0.24552073 -5.1375074 -2.9473894 0.122845285 2.9385507 -7.996116 4.5053573 5.281524 2.9130244 2.6273284 0.52054507 -2.725882 -2.8252656 3.899864 1.7465653 -2.2505088 -12.691812 2.1337993
GO:0000176 -0.2067799 -0.99155337 1.2794288 1.0855719 -1.934476 -1.5189058 -0.5447931 0.259542 0.64066154 0.1493836 -1.5819038 -1.0343132 -0.36759526 -2.4834104 0.15189406 0.904488 4.0459466 -0.62058574 -0.18788537 -0.5055004 -0.56823635 3.215821 0.5761233 1.1349441 1.2732422 1.2459093 1.9978131 -2.038701 -0.4074312 -1.5333173 0.74645525 2.6836429 -0.7285935 -10.364694 -0.87990534 0.111662894 1.3557173 -0.25408348 9.595811 10.426349 1.0065001 -0.17582357 0.10654845 -5.502272 1.4152763 -6.3836393 9.188329 1.5084829 -8.182882 54.178024
GO:0000177 -0.82622963 0.20886664 2.3155107 0.5402919 -1.23526 -1.361253 -0.6125155 1.0784303 0.73740816 0.78917754 -1.8036741 -0.048345238 -1.739848 -2.5566988 -0.12063932 0.49498373 4.640624 0.08342662 -0.404096 -0.065499365 -0.6059581 4.0090566 0.93573457 1.178362 0.88194937 2.723352 1.0490897 -1.361728 -0.56635994 -2.2209115 0.84283143 2.784229 -2.1499543 -10.448198 -2.884709 -0.44249275 1.7464725 -0.26572415 9.274445 9.094117 1.7992026 0.103072174 0.6033858 -3.8724966 0.14703271 -3.7579012 8.314511 3.3486657 -11.88751 31.666372
GO:0000178 -0.9893274 -0.18064612 1.856047 0.6692059 -1.7441099 -1.3056837 -0.2329306 0.25445262 1.032424 0.5267185 -1.4811466 -0.64603984 -1.2546121 -2.5262077 -0.0009557008 0.58023256 4.07683 -0.83777755 -0.15219618 -0.73640287 0.3625822 2.7684298 0.9388223 0.92325145 1.0914768 1.5424176 1.3089867 -1.9954852 -0.40336907 -2.199127 1.0440137 2.5518548 -1.6334603 -10.973352 -2.4853055 -0.23212005 1.7492838 0.394204 10.942626 11.479455 1.5695215 0.01796941 -0.07364511 -4.8068585 2.6537635 -6.1993136 8.248641 1.6950634 -10.089957 40.68864
GO:0000214 1.577354 -3.5506039 -1.0902915 4.411221 -2.3449907 -3.674696 -2.838264 0.9622631 -1.8018967 -2.4983106 -1.531984 -0.0032221428 2.2721975 -0.47330323 0.5993044 -0.30786324 2.429384 0.43701598 -0.90899414 0.0044661853 -1.1782712 -0.10691427 0.94292635 1.6547875 -0.8484465 1.5597697 -1.7397091 0.6765319 0.52809983 -0.550921 0.56495506 0.9301551 -0.12672332 -4.3992333 -0.7336966 3.1583037 2.1632152 2.4186957 2.69208 8.411982 -0.83537 -6.93959 8.48054 -3.8510797 -7.5574207 4.549257 11.71012 15.76899 -28.219898 3.5921018
GO:0000220 3.0413234 -0.735976 2.4664388 -2.048933 1.9398656 -1.9885638 -2.6177778 -0.6259487 4.6848617 1.2130958 0.07616604 0.34073862 -0.5230332 5.1553445 -0.49111417 -0.8028204 -0.43152416 -1.6777318 0.3737971 -3.6324103 -1.1454352 -0.044863172 0.2905475 -1.069941 -2.651724 0.08450909 2.1476958 1.7432505 -1.7942184 -1.5261152 0.27985948 -0.006853418 -2.5410552 -1.0047889 -2.6103833 -7.5508657 -4.249872 0.11417084 2.0475864 5.3167105 1.806131 2.0428278 -0.09137142 -4.7135744 -5.772101 7.073486 -2.0732923 -8.631283 -10.31768 12.011458
GO:0000221 -0.2808383 2.1782858 1.8798343 -2.0389402 -0.40378422 0.16417168 2.0181093 -1.7712507 0.53447306 0.88279694 -1.4248468 -1.1774033 1.331534 1.554821 0.26709124 1.9645159 -3.7249274 1.0310712 2.2268107 1.2921451 -0.32938993 -1.12303 1.2064898 -0.6985386 0.23886809 1.3314439 -0.5659024 -1.9252809 -0.17149326 -0.59121144 -0.058839243 2.2793324 -1.8272952 -6.8729215 -1.6917837 -7.0970416 -1.6161364 1.7975509 7.5593762 0.37521234 1.3166456 0.054444574 0.46580052 -3.3256185 -9.638967 2.8418057 7.9620447 1.9774072 -2.9926364 70.42257
GO:0000222 0.17809853 0.6257974 2.1631384 -0.077303395 2.7180374 -1.5225711 -2.9024236 3.0348964 5.545497 0.08355888 -1.1528366 3.7595885 -2.4984922 3.720619 0.55271316 -3.3208885 0.14366306 -1.6275454 -1.4945921 -2.6495996 4.0493464 -2.088744 0.18337362 3.805365 0.82516456 0.95612127 1.666976 -0.6947327 2.419369 -3.6711545 1.4171302 1.0164998 -7.0563626 -0.42629224 -3.7114453 -13.449087 -3.7129674 3.1761293 5.80205 -4.5551176 4.7008433 2.5257425 2.6777487 -1.8174896 -10.0357065 7.6084304 8.339309 9.905667 -24.315493 3.3083744
GO:0000223 -2.541766 1.8097568 1.4936959 0.37522194 1.739906 -0.3206109 0.011674848 1.8472548 2.4222174 0.79073703 -2.59505 2.4829664 -1.2988195 1.5177504 1.5402365 -1.007724 -1.6216552 -0.12371216 1.3164402 0.67975354 3.5803823 -2.791794 1.6354438 4.79361 3.2792623 1.2334203 -0.27037275 -2.1393306 3.5237496 -3.003189 0.8826825 2.4601345 -4.6171556 -1.5476215 -4.460191 -12.067774 -3.3781264 2.1947827 5.808431 -4.2238493 5.4352226 0.89636475 4.0191183 -1.9670255 -9.181428 6.7063355 8.018053 8.888016 -21.367762 5.964069
GO:0000228 -1.7763387 -0.31321952 0.9870212 1.5422627 -0.6056376 -0.39891297 -1.404426 0.4143602 -2.2229028 -0.8731586 -0.5231964 -1.6222435 -0.3720662 0.1085822 0.52489156 0.37881142 -2.3772137 0.8751582 1.4219567 0.72042996 0.22001942 -1.2500896 2.083738 -1.1725584 -0.697627 0.1610293 -0.657863 -0.96778876 -0.43092394 0.689136 -0.7743795 4.7982645 0.3251626 -5.212953 -3.9867425 -0.5803648 6.9304185 -11.489016 6.3541255 2.073005 4.847217 3.3363028 2.369686 -0.15941308 -9.430719 4.655463 8.417951 6.632206 -14.760236 22.440075
GO:0000229 -5.188577 2.5415802 2.3434105 5.590544 0.46208194 -0.59845775 -2.6419814 0.43366352 -1.513411 -1.0346222 0.6222427 -2.224688 1.2051338 2.667013 2.85816 1.4312525 -2.50188 -0.22016795 4.9821424 1.3843865 1.5317111 -6.307841 6.234702 1.4378593 1.9939504 -3.5009863 -0.17450987 1.1334724 -0.5204319 1.3757172 -1.2109191 3.5498655 1.7842678 2.7822607 -4.008979 -3.2235687 8.107163 -12.199009 10.745365 -1.455758 10.261535 8.464925 0.04241014 1.7682923 -5.6401615 4.114303 1.719048 -0.6001752 -15.160886 2.6001487
GO:0000235 -0.64602053 -0.40248978 0.38689038 0.07210654 0.23810165 -0.5159749 -0.06403543 -0.1366859 -0.16104394 -0.0056351162 0.5238827 -0.6778358 0.19905615 0.37237987 -0.06369229 -0.6359012 0.07355916 0.54362464 -0.22381589 -0.3541736 0.28016034 -0.109183855 -0.32710645 0.3344929 0.3556404 -1.0236135 0.364863 -1.0166181 -0.3865914 0.97779715 -0.2100011 -0.29616043 0.707949 -2.1691449 3.383913 2.2546017 4.9100685 1.9551412 3.4876149 -5.5093756 -2.8070304 -1.1031841 -0.44345266 -4.094863 -1.2563719 0.8817879 0.5666889 -7.1069093 -0.9724439 29.928875
GO:0000242 -2.2697957 -2.1918972 0.2460076 0.6397947 1.03084 -0.662076 -0.43257275 -0.3323356 1.4114183 -0.8017841 -1.7788292 0.9606265 0.63443255 -0.9889151 -4.078091 0.43259525 4.9153075 0.73747027 2.3797655 1.3432819 -0.19628003 -0.058580864 0.019158639 3.3438377 -4.2615914 -4.6212234 -0.44465894 1.0902325 -0.30719566 0.211094 -0.041791495 1.5029422 0.6643525 -3.7546241 -3.909215 -0.4691245 -4.6459136 -1.6817042 -1.537034 11.004779 1.2069279 -0.34733707 3.5640771 -8.134686 -3.690768 9.442659 -3.1669858 -13.443214 -18.799488 2.1899626
GO:0000243 0.3161511 0.23092061 1.3361092 1.9464682 -1.401253 -0.5480279 3.1435018 -1.3057144 -1.3173709 1.8776417 -4.087567 -3.8636732 1.1511308 1.8379937 2.6397214 3.5577977 0.49396533 0.36563444 4.3975396 1.6369746 -4.4480257 5.8137736 3.7098873 -0.42713943 3.8622112 3.552777 1.3905689 -2.6155825 -1.4621466 -0.04285058 -0.19652763 2.560836 0.6743624 -13.572464 -3.9419448 -2.9070768 1.6489476 -3.7390761 6.0091615 1.9117097 4.9044533 3.7511594 0.04727946 -2.2140539 -9.216778 2.6973119 8.079012 0.9307468 -4.055303 71.87081
GO:0000262 -1.8509458 2.719479 2.978665 2.5817065 -3.4632666 6.171603 0.0940334 -0.14007117 -7.537382 0.9776538 0.25324953 -0.57277864 -2.0436628 1.7917961 2.4415443 -3.2521958 1.3565652 1.8839141 0.33351713 -3.4247725 4.354953 -12.016453 1.5772152 8.746799 2.03886 -4.2651415 2.7959 -1.4158887 5.804199 0.4325921 -0.6882378 4.1092715 0.959668 5.001996 3.316108 0.51041454 13.420622 -15.930742 10.616545 -7.0850544 3.3345394 5.3365602 -1.0579535 -2.4680412 -1.8487008 3.7407823 -1.0421159 -7.779483 -11.140152 1.7634969
GO:0000274 0.702955 -0.8627332 -0.28252566 2.9201643 1.6337957 -2.3737726 2.8588111 -0.8912923 -1.4519981 -0.5538591 1.2931212 -3.2586827 4.0401044 1.3970629 2.661305 5.8645406 -6.4236374 1.7895888 4.9134 4.832059 -3.059893 -1.2557917 7.363018 -3.069045 2.224741 2.6882336 0.31970704 -7.3610916 -1.4105833 -4.9055915 0.8372687 -3.1333504 4.2328453 1.4972785 -3.5908937 -8.553427 -2.907763 3.065842 8.480854 -0.24962877 4.255089 0.67630416 2.4331162 -0.24529722 -9.02609 5.66934 5.251849 3.153074 -11.853457 29.95232
GO:0000275 -1.2813202 1.3443255 2.167133 0.06437988 2.027384 -2.2653072 3.5906837 -0.17711112 -0.04383013 0.26657182 -0.1699678 -2.5574214 1.310222 -0.13716875 1.3853855 3.0164182 -5.2535477 0.6087321 5.016599 3.2425554 -0.5479071 -1.04948 5.486399 -0.38790408 1.9779261 1.2902482 0.67231256 -3.8628483 -2.0437741 1.21361 -0.24694963 2.160115 -3.6778557 -1.0798045 -3.0787604 -9.896465 -2.516915 3.8103838 13.321829 5.230907 6.068754 -6.7226353 -5.6679845 -3.225951 0.328235 0.2583593 4.149519 3.294572 -12.375218 24.874933
GO:0000276 2.1410158 -1.2691905 -1.1209277 2.1962893 0.5910008 -1.8498013 2.0714731 0.15537626 -1.503613 -1.7393625 1.7474357 -2.1859534 2.5390728 1.3082114 1.7247165 4.8030286 -4.4479804 2.3077464 1.4681702 4.65328 -2.5287151 -0.5452539 5.6999574 -3.3048255 0.12945676 3.3055763 -0.13838029 -7.912154 0.6477859 -10.996232 2.3852293 -4.5635633 4.455989 0.26777485 -4.54516 -9.688327 -3.5930965 2.8891368 10.253379 0.29339734 4.986563 0.94309366 1.8426205 0.30357614 -8.1765785 6.3443375 4.2714834 3.3784966 -13.917814 20.938509
GO:0000306 -1.9983137 -2.0648763 -1.2537262 1.1197712 -1.3146406 0.9114233 0.33163023 0.45084438 -0.2683798 1.7428322 0.39597726 1.8651046 -3.153716 1.1519258 -2.125245 -1.7173828 -3.5784523 -0.011746594 1.2803533 -3.21011 0.91770166 -7.3819075 -0.75316113 11.198899 7.2224655 2.8655295 8.036624 0.8718635 8.576885 -3.115463 1.021863 1.9433185 -3.9429522 5.3964043 3.3268359 -10.818876 -4.225883 -3.216345 -6.5749226 -12.015374 6.452218 2.0637653 7.627566 -7.984389 -6.090544 3.6826386 12.664416 12.9186 -28.334599 4.140257
GO:0000307 2.9854326 1.6399008 1.4877048 -0.74193364 0.2367142 2.5318112 -2.9098396 2.6359417 -1.5016738 -1.4171523 1.3463751 0.12501767 -1.1507908 -1.3875676 -0.84893614 0.9272911 -2.2464385 2.3131697 -0.8334966 -1.3352809 -1.6752241 0.71989065 0.07038222 -0.40481 -1.1781516 2.062642 -0.10504464 -0.2813645 -1.8931662 1.6191052 -0.10784771 -1.1893508 0.7656374 -1.0439831 -1.1157739 3.5071566 1.94367 2.229424 -1.8869041 0.5287571 -3.5000992 -2.21526 2.804127 0.5802465 -11.071576 8.521775 9.425424 13.171151 -23.18347 2.0197737
GO:0000308 -2.1686065 3.1243844 2.6674252 0.6105024 3.8811004 -2.0824072 -3.7687674 2.494319 -2.1176093 -3.7712793 -0.3615712 -0.6268682 0.18877696 -2.1225662 2.8630617 1.5076995 -2.098113 2.4863424 3.0220013 2.9874365 0.15166004 0.37911594 4.82966 -0.25097755 2.2789433 1.7829102 -2.0533836 -1.8142657 -3.3326426 1.8824375 -0.7472734 1.7084045 0.6424498 -0.42895147 -4.696867 -2.5679638 0.7228456 5.049795 4.7019744 -0.69128096 1.3466039 -1.3434111 3.264219 0.4309083 -9.217628 6.8771973 6.855781 7.708095 -21.046913 2.1661038
GO:0000311 2.7900467 0.85222596 0.0098159565 -2.137348 2.4200773 0.7214873 1.4110565 -0.96149915 -2.0702183 -0.09783604 -1.2985507 -5.3097444 -0.7161523 3.0681732 1.6643121 -1.5526562 2.3655016 -1.4055043 -0.5811213 -2.7128427 -3.5681953 3.3399405 1.1228744 1.88834 2.8065615 -1.706365 2.3601997 -0.019646779 0.25892037 0.95804244 -0.44972882 -0.6967417 3.3574648 -3.271159 1.7271798 -0.63346684 -0.8865179 -2.375776 3.052179 -0.13510557 2.034677 3.6828463 -2.2637458 -1.409349 -4.825567 -0.28934416 5.0013876 -2.3856707 -0.9209609 64.130356
GO:0000312 -0.07023368 -1.1802026 -0.03147983 -1.2338799 2.390863 0.75058454 1.135621 -0.8577756 -0.91877395 -1.3900727 -1.0199844 -5.0283194 -0.67369354 2.2002347 1.1811496 -1.6672522 1.2299736 -1.3288867 -2.1488726 -0.61202 -3.311325 4.280568 -0.046696503 -0.7616309 4.9783688 -1.9029014 1.2512045 0.8207878 -0.9403153 2.4663475 -0.8927101 -0.14563937 3.185481 -5.8584123 4.4597187 -1.5419967 -0.665712 -1.2130817 0.9111008 -0.36837754 -0.40410373 0.93127316 -1.4730897 -5.718441 -7.294137 -1.9512126 8.5046 -2.2229128 6.3046536 116.48291
GO:0000313 1.1363435 -0.88863903 0.047954664 0.53621423 2.8220944 -1.1948676 -0.5965944 -0.1948706 -0.9174982 -1.5694859 -3.6834123 -4.4228463 0.59064406 1.591508 2.6232803 -0.2048983 5.654861 -1.4266307 -0.17848624 0.30878952 -4.5521836 5.5874386 0.7914134 0.412787 4.362894 -1.2475046 1.9930555 0.9130066 -0.92599976 1.078297 -0.24138305 -0.44204968 2.3874283 -0.6395665 2.1404214 -1.8587831 -0.47248855 -1.4957753 2.3097312 -0.7526392 1.937762 1.0607225 1.59058 -1.7975085 -8.30495 2.9302049 6.412934 2.4723053 -6.5848885 42.994576
GO:0000314 0.76744854 -1.1798941 0.6260921 -0.78447646 2.1979933 0.33832917 1.7129356 0.2557491 1.1996189 -0.7545223 0.15060781 -2.1721976 0.38471738 -0.061229803 -0.08182162 -0.43917182 -0.92965597 -0.55341077 -2.0722895 0.7068906 -1.0219896 1.7540729 -0.9993306 -2.1442673 2.0378067 -0.3127092 1.3641663 -0.8351363 -1.690106 1.8489391 -0.75753057 1.65355 0.47689754 -1.4411969 6.2106433 -7.5655665 -2.4596872 0.8138211 3.9544055 -1.8388203 -1.8881851 -0.32421052 -1.0508945 -6.5812883 -7.674991 -1.8569778 8.535131 -1.8338414 6.5413966 111.32792
GO:0000315 3.1857038 1.0594132 0.26933792 -2.097472 2.1033268 0.5389541 1.5039395 -0.7143272 -1.803314 0.25387573 -1.2801449 -4.7537866 -0.56283814 2.6457102 1.51469 -1.1490037 2.2582312 -1.1659135 -0.22848529 -2.4840112 -3.2472892 3.0583298 1.0995176 1.823321 1.7862375 -1.1673595 2.5607836 -0.5500447 0.17233677 0.6574287 -0.36355704 -0.454179 2.6564152 -1.7311584 1.7297783 -2.0324004 -1.3596368 -2.0418313 3.936348 -0.36795986 1.8683958 3.6140811 -2.2644792 -0.91626173 -4.4355493 -0.06850795 4.361564 -2.1547608 -2.016738 53.645115
GO:0000322 2.0616868 -0.89247924 0.531706 -2.6817408 2.5262654 -1.0081118 -1.7461015 -0.85885876 -0.02409411 0.28157797 -1.9155406 -2.9272437 -1.4418937 3.5445113 -0.061622437 -0.4638066 0.82483315 -2.2657685 0.26854217 -2.6954205 -3.7106256 2.2276185 1.534083 -0.027630482 1.2124082 -1.7812499 1.6032257 2.1217597 -1.7836524 0.064125545 -0.3012342 -1.1095746 1.5083 0.08137514 -1.3785179 -4.7373724 -4.6148047 -2.1505697 -0.77716064 5.8026075 2.0201526 2.7121 0.8719692 -6.3301153 -4.3740807 5.6379566 -6.2152333 -12.392847 -8.7937 16.268045
GO:0000323 2.3256338 -0.6595011 1.0584365 -2.4480793 3.2587137 -1.1630136 -1.9399607 -0.5586445 1.1359595 -0.23695791 -0.25708953 -3.161271 -1.4368635 4.1464133 -0.19948864 -0.97768015 0.76713914 -2.2764766 0.042338997 -2.5130353 -3.3711271 1.4375653 1.6845994 -0.167086 1.4234017 -1.666434 1.8701496 3.0270789 -2.0079265 0.3198892 -0.28196797 -0.80896914 1.094617 -0.5124281 -1.8742566 -4.0384493 -4.322368 -2.1318521 -0.48824373 5.2784877 1.1899198 2.4317222 1.0005621 -6.6088405 -5.2099977 3.361901 -11.374733 -10.399224 -10.21598 7.878031
GO:0000324 0.35253003 -1.0464342 1.0947953 -1.154458 1.5169742 -0.20304097 -1.1596757 -0.96006984 -1.2751659 0.17509775 -4.240735 -2.223185 -1.52787 1.0868199 -0.4351326 0.72119886 -0.16299531 -1.1805975 0.03376068 -1.1320366 -3.700307 1.9361947 1.433367 -0.20731343 1.7073246 -1.6814072 0.9628979 1.3134955 -1.5902433 -0.5126455 0.0069636274 -0.8140278 -0.24945629 0.17858139 -0.119257405 -3.1798007 -2.2859902 -0.12037497 3.3824747 0.35006782 0.9661197 2.09716 0.8986974 -5.153382 -4.835652 1.2897401 -12.417681 -7.8897552 -10.997507 1.9765022
GO:0000325 1.5239002 -1.4855711 2.1622612 -1.7380769 2.6337662 -1.4969411 -2.499962 -0.18616268 1.7115283 0.9739885 -0.75527304 0.15399608 -0.9259725 1.5404948 -1.1214433 0.114278086 -0.95393807 -1.9376751 -0.22834204 -2.2318118 -1.0653468 -0.06967977 0.53612715 0.374647 -0.7680244 -0.8553932 1.3908577 0.8386543 -1.5490456 -0.6678979 0.026389904 -0.25991714 -0.76420856 1.8639227 0.28675187 -2.6994278 -0.38328066 1.2888788 2.6054146 -0.007490208 0.04387882 0.5444807 0.40270454 -5.956268 -1.9300982 6.1330495 -4.9992976 -13.780266 -9.898699 1.319075
GO:0000326 0.52094674 -1.7303476 -0.113912515 -0.088605195 2.2144663 -0.7082246 -0.30888048 -0.6670484 0.16339561 -0.6399787 -2.933958 -0.89188296 0.6705853 -0.9469522 -0.23718366 1.4673622 -1.1077898 -2.066157 -0.6326004 0.63180554 -3.012207 -0.19045812 -0.12807739 -1.5925263 1.8892902 -3.4611034 0.28158966 3.5780094 -1.5477481 -0.41548073 0.40607613 -1.4694881 -0.2285841 4.47749 1.9912103 -4.1570487 -2.704827 2.8875363 4.6896515 -1.7919239 2.117374 0.60200614 4.357595 -1.0926708 -10.147801 0.7113876 -4.9960766 6.1450543 -12.120544 10.390246
GO:0000327 1.708694 -0.9130155 -3.0517764 1.2768191 3.1581209 0.56329453 1.1109825 1.6150268 0.51691973 -1.6236864 2.1312838 -2.5366912 2.9680488 -0.25375354 0.3583569 0.9716714 -1.7148775 -1.1889321 -1.4286175 2.4717882 -2.7065797 -1.4966909 0.3056937 -2.5654511 5.945069 -3.170062 -0.042165343 6.0491004 -2.4667573 1.0646876 0.22108456 -1.6670418 0.7076001 -2.7905653 0.921362 -4.736044 -2.9391577 0.16855149 5.4257026 -2.1756353 -0.46498442 3.2739298 1.641984 -5.1268444 -12.569293 -11.546975 -21.512924 9.221786 -6.8964367 48.358803
GO:0000328 1.2387103 -1.0594611 1.395522 -1.3294295 1.4968224 0.09975464 -0.85940725 -1.0546297 -1.5265214 0.14030415 -4.5509505 -2.4479837 -1.8816892 1.1568809 -0.2517692 1.329717 0.23767191 -1.2780906 -0.078809515 -1.2578328 -3.9603107 2.1790712 0.9478303 -0.7934502 1.7573774 -1.6043487 0.55758876 1.8306117 -1.3349686 -0.60673684 -0.023199506 -0.8036735 -0.62947756 1.4069302 -0.4838472 -5.776372 -4.0929 -1.008587 2.1229198 3.1405447 1.2659631 2.2463446 1.0558462 -5.967056 -4.6459665 4.1429524 -11.167733 -10.640413 -11.791023 2.1379135
GO:0000329 0.4272536 -1.5511149 0.9032312 -0.32607898 0.59823567 0.607551 0.071843535 -0.6886604 -0.9254062 0.8939391 -3.1117105 -1.058726 -2.113573 1.2859432 -0.6451142 0.08113596 -0.9254503 -0.9583106 0.7906664 -1.9646709 -2.117263 -1.79351 0.60232115 3.7348423 3.5645804 0.09254448 3.462859 0.89825803 2.0139744 -2.026101 0.36022362 0.07182146 -2.12133 2.8743014 1.4056267 -8.23348 -2.7706797 -1.2697021 0.9641013 -3.2294118 3.1471877 2.5045881 2.3338044 -6.372146 -2.9150193 3.9776018 -2.8562512 -5.6177926 -13.19184 1.7392393
GO:0000330 0.2518193 -0.94773936 2.4659762 -0.86014557 1.1146114 -0.8963475 -0.9371002 -0.5310103 0.40911147 0.038281277 -4.180641 1.5646551 -0.9480733 -2.1256175 -0.88001466 1.6740918 -2.079083 -1.1020777 -0.56432664 -0.25398594 -0.9468456 -0.41722214 -0.37011358 -0.67698807 -1.6008241 -1.1441773 0.29811677 -0.4226263 -0.8801863 -1.3629612 0.40530503 0.35497713 -2.5838747 5.953872 2.8105302 -5.00522 -0.8883026 4.7112265 8.556273 -4.7224793 1.4124988 0.38830194 0.9923976 -0.6321229 -3.1332514 2.429307 -0.20622173 -3.7490695 -7.9095354 1.2984025
GO:0000331 2.2823086 -1.6894732 -0.6506231 -1.1167324 2.5267906 -2.5031257 0.4573419 1.1276544 0.5102806 1.4556366 0.353821 -0.09729205 0.16150244 -0.9111618 0.6850631 -2.7215743 -1.0071431 -1.0433486 1.3634914 -3.3388858 -0.6208722 1.1692067 -0.033605732 0.029430166 -1.7499735 -0.9247769 0.25221115 -0.23809965 0.36021093 -5.1145487 0.89700985 -3.1640081 2.7244995 2.1102514 -2.5332391 -5.2064857 -5.2708883 -3.1457744 -3.7683394 7.8698125 -0.5361375 0.14902548 1.1819733 -9.3045845 -2.2460032 10.2379465 -7.8817444 -18.166536 -12.183883 2.3015835
GO:0000333 0.3763802 -0.095344245 1.0147487 -0.062199567 -0.29610416 0.80944496 2.6842039 -1.2419397 0.5317477 0.22598656 0.35145766 -1.8777146 -2.0894084 -1.9422091 -0.8727945 -0.119584545 1.0921044 0.93393695 -2.572348 1.3165437 0.27010363 2.9632225 -2.545069 -3.6217978 -0.471764 0.19958988 -2.4665303 4.3542657 1.1259304 -2.2128792 -0.15319623 5.884327 -3.8801925 -11.730828 -4.320129 -3.5049016 7.9914126 -12.107998 8.693833 2.9070091 5.677782 7.0242434 -0.3718444 1.0121825 -2.2795353 5.821129 4.2628675 4.7322073 -6.5113993 55.87119
GO:0000343 -2.9807396 1.7451109 1.4585342 -1.7022268 -0.5008847 0.77128357 -0.006309371 -0.4747559 0.6134221 4.702761 -1.4584866 1.5112939 1.4119686 -2.0196233 -0.18995196 2.945277 3.3575394 -0.62135935 -3.9228032 0.7582262 -2.1872444 4.558727 -2.1071637 -2.4517617 2.4850364 0.82770514 0.4382932 3.129443 -0.5149385 0.032451153 3.9521728 4.989139 -1.9537647 -8.449656 -3.0565712 -2.1692288 3.4858742 -13.882401 5.771064 -0.111517474 15.228725 -9.962214 -17.83259 0.52656573 -1.3718109 5.3702226 2.1428773 5.3934283 -10.021139 38.0152
GO:0000344 -3.3368928 1.9448215 1.3937547 -1.3874176 -0.044506557 0.8759401 0.26984066 -0.42555368 0.8970507 4.6288824 -1.8075593 1.4116288 2.3611925 -1.855783 -0.053536635 3.1130831 3.3257518 -0.97786146 -3.9706085 1.0544672 -2.4930258 4.5616612 -1.9833996 -2.205744 3.1724691 -0.47945076 0.76833457 2.4727457 -0.90454143 1.3984145 3.6319137 3.8538275 0.18887387 -5.1150837 0.058090847 -1.6296986 3.0190678 -13.667399 4.020041 -1.1404594 13.822273 -10.497488 -16.911932 -0.58109957 -1.0288452 4.1747646 2.1926265 4.313564 -6.623108 49.197956
GO:0000345 -3.3660803 0.2854055 2.258427 -0.5250564 0.32151178 -0.7513351 0.49207953 -0.23999217 -1.088907 2.729274 0.2627716 -0.32338095 0.091807544 -3.3401306 -0.6632212 1.7260474 2.8429995 -1.0626608 -3.415009 -0.20484567 0.51312745 3.6843336 -0.9211595 -1.0463635 -0.33959663 0.41454208 0.7648627 0.31994674 0.11696796 1.6108662 3.5736847 5.588116 -0.7051606 -2.2013261 -1.4764198 1.1133043 5.246899 -13.445723 6.262034 4.939788 10.81861 -12.991159 -10.375001 -1.0339488 -0.8411788 5.3784575 5.9724016 12.666749 -23.698057 3.537191
GO:0000346 2.412631 -3.809773 -2.1328676 4.776047 -1.6505543 -2.3977072 -2.7772105 1.6558608 -0.30274376 -2.2527797 -0.8046495 -0.82447374 1.4653562 0.3613658 0.034648582 0.4277207 0.17184195 -1.1331595 -0.21508457 0.046045683 -1.7054031 4.0733542 0.8628555 1.8179264 2.6289227 6.1071973 3.335141 -0.10989589 1.9899915 -3.0863502 0.62790227 5.3796434 -3.347814 -15.430175 -5.354834 -2.8419373 -0.645317 -3.8416202 -0.22919993 -2.5839822 5.7788773 2.8263469 3.437381 -5.35068 -8.472752 3.087238 12.015705 7.106363 -16.115149 40.45275
GO:0000347 4.0081654 -1.5737172 -0.92319465 3.272857 -1.6180773 -1.8166434 -1.7037381 1.3642707 -1.0468736 -3.9248035 1.0972831 -1.7188518 0.0336444 0.487705 -0.2135712 0.45513582 -1.1885648 -2.4988954 -2.7860408 0.3139985 0.02997753 1.039909 0.6995145 -0.20107813 2.21451 1.9516174 0.48118493 4.5585556 1.7765045 -3.5171332 0.64221406 4.8222084 -3.7256742 -14.975381 -8.904712 -3.030551 4.3569546 -6.8987374 7.560429 1.9506888 8.525716 6.255583 -0.22699215 -1.10611 -8.506183 4.759625 7.024777 3.625021 -14.722547 31.721167
GO:0000399 -1.5458331 -4.0729194 -0.3644717 1.4017413 1.5830365 -0.28267264 -1.0639203 -2.0930111 0.3705511 1.0194342 -3.2454185 1.5432872 1.5908556 1.3778083 -0.66222817 2.060346 -0.148064 0.38854936 1.7733228 -0.54241884 -0.91313714 0.055969972 0.86748374 1.2338576 0.012323446 -1.6858633 -0.020647008 -0.19434991 -0.7156922 -0.76030195 0.18007421 -0.012814061 -0.44276342 -1.7517228 0.6083529 4.3320704 3.1885564 2.5432084 4.8822083 -3.8351135 1.1714239 0.8113221 0.120008655 -2.5342264 -1.7555127 3.8239322 -2.0620315 -8.576 -8.472961 0.9841717
GO:0000407 -4.660293 -0.069155484 0.30142576 0.14673607 2.4842181 -2.3278685 0.66507417 0.90457016 0.49823636 -1.3864466 -1.2757865 0.05397176 1.9617103 -2.068343 -2.8371346 1.5200304 2.649679 1.0799911 4.8159137 4.667707 2.8261175 0.1829663 3.7371688 4.8146067 -2.4168608 -3.8582199 -2.0408776 -2.3177137 -1.1383855 1.7472564 -0.18634225 1.656819 0.4546722 -1.6949416 -6.561004 -4.676536 -2.7049894 5.6028423 8.332932 -1.1205013 5.1076217 1.2175051 3.4424644 1.8680258 -8.5288105 5.997685 4.3223433 2.5690844 -15.97262 2.4322498
GO:0000408 2.815171 -3.8947623 -1.290573 3.5470514 -0.40431184 0.020690855 -0.39516714 0.059255764 -0.42609963 -0.7325375 0.34383145 -1.2868297 1.4976443 0.17209946 0.9808965 0.05777107 -0.436295 -0.4349823 -0.13502905 -0.8700399 0.028658653 -0.52228373 -1.3572204 -1.6995398 -1.5777348 1.7833408 -0.50363314 -0.41609144 -0.0592933 -0.35000327 0.7656579 1.9885783 -0.0076595345 -8.601556 -3.104478 1.6346405 1.1521652 1.3000745 0.07315126 1.2802085 0.087959684 -4.8915777 7.41276 -1.8255564 -15.1650305 9.056972 10.902502 12.997958 -19.042871 27.219357
GO:0000417 2.2785115 -3.284138 -1.3549719 2.9808805 0.38280773 -0.39630538 -1.2269329 -0.029249033 -0.53444207 -0.7679876 0.42567024 -0.624016 1.9140425 0.14861178 0.23553501 0.10826089 -1.6239637 -0.20904303 -1.3126625 -0.5195185 0.83890724 -0.45429814 -1.3273054 -2.5173693 -3.8726392 0.33284685 -1.4931196 -0.67819005 0.17319566 0.19382177 -0.21236491 4.525294 0.7201173 -4.4093604 -2.8036883 1.6803039 4.9124002 -7.2407713 2.7713978 1.6797177 2.000813 -1.6137272 6.0954514 -0.42353603 -13.954746 7.646327 10.267375 11.386573 -18.72599 22.49287
GO:0000418 0.0058092517 0.70804995 2.294393 1.5874505 -0.3389879 -1.958186 -1.0483881 1.4687794 -1.6286455 -2.5562522 -2.6423821 -1.9418647 -0.6740704 -2.0345466 0.11807601 -1.4327314 5.8626537 0.3853496 -0.8760857 1.4041945 -1.1602379 5.9310923 -0.29022247 -0.7474798 1.0298479 2.2757874 0.6149309 -0.90605587 -0.43320724 -0.5227193 -0.18274134 5.8795605 -0.38774347 -6.8434715 -1.5662051 -0.47342128 6.776884 -12.693592 9.204235 6.1799126 2.8732383 2.842572 0.0229918 -2.848067 -4.50865 -0.2989814 8.825292 4.3860292 -10.705184 38.299763
GO:0000419 1.6653821 -0.14980662 1.968627 1.4640983 -0.31579843 -1.2822816 -0.469768 0.6647913 -1.5152229 -1.4537641 -2.7283053 -2.4451635 -0.564869 0.2474107 0.510947 -0.5479648 5.7817135 0.814723 -0.4857093 0.4278458 -2.0182123 5.176285 0.591021 0.16635564 1.4369513 1.9402862 1.7467431 -1.1701536 -0.01685388 -0.99054956 -0.18731864 4.9538536 -0.11898749 -8.472293 -2.2192361 -0.64597183 4.4100695 -11.9687195 9.444804 4.2749715 3.6737278 4.487656 -0.10726607 -2.2685485 -7.0720124 -2.4311259 0.26038927 5.665624 -11.699482 29.971352
GO:0000421 0.17186666 -1.6643422 0.7290565 -0.78904885 -0.85135615 0.33717668 1.1967635 0.72183853 2.1192212 1.1301982 -0.76865757 0.6977753 -1.3754382 -0.18764396 -1.5559202 -0.58087903 -1.6826215 -0.9038059 1.2991192 -1.9545425 0.29554963 -4.8558974 -0.19502044 6.2537413 3.662175 1.2451108 5.0118876 -0.45469058 4.4311423 -2.5699015 0.86659384 1.3196806 -2.622174 6.377282 3.5673003 -12.978541 -4.456425 -0.08553162 2.1768246 -8.5168 4.9320626 2.7050831 4.316469 -4.665484 -3.7615552 2.467964 5.923711 4.2813296 -13.900602 14.713186
GO:0000427 -2.6213112 1.9498101 0.5540507 -1.6024419 -0.528647 0.50179595 -0.08050613 -0.08576096 0.68341523 4.0745134 -1.7908325 1.4911114 2.0540605 -1.6398437 -0.39578184 2.6234338 2.1423075 -0.9615844 -3.9569867 0.42038214 -1.7782415 4.183628 -1.6184031 -2.2499979 1.2501374 0.49760795 0.45164284 1.2392926 -0.5554067 0.41225097 3.4314382 5.3576508 -0.6881415 -6.1180267 -1.6131612 -1.4684626 3.9977632 -14.459051 6.128404 0.58701944 13.070224 -8.6479 -15.024242 -0.20441857 -1.5954635 4.0531006 3.1473315 4.8771935 -9.263888 37.675156
GO:0000428 -2.853334 0.47206336 1.79158 0.7776042 0.08930948 -1.1266952 -1.3764479 0.35416275 -0.788591 3.1910114 -0.11189971 0.06725294 2.2470832 -3.1573517 0.07197815 3.9167507 5.184279 -1.9555433 -3.2958167 -0.21382685 -1.3875153 5.445748 -0.51496583 -0.44084898 1.756142 2.2615352 1.9916251 0.95317316 0.009369695 -0.05669237 3.3596156 5.8473644 -1.3518006 -4.934347 -2.6148365 -0.64521885 5.5585027 -14.395203 8.189316 5.6713405 11.111003 -6.6722198 -10.915891 -1.357969 2.576634 1.1601465 4.5085797 7.6875663 -18.915024 4.531434
GO:0000438 -0.48191264 -0.11223209 3.8800874 -0.37616718 -0.2923448 1.6064878 0.4011625 0.09404375 -1.1155614 4.7200246 3.3802018 0.9943427 1.8668936 -3.9708943 0.31686267 4.563471 4.2006173 -1.0310538 -3.4647968 -2.7883978 0.22615086 3.283744 -1.3774744 1.2960411 0.7298529 5.4144273 1.1856308 -1.1665725 0.96686494 -2.9395924 1.1765242 4.9568076 -4.00053 -16.40855 -4.1862993 -1.4912137 2.2587552 -2.0512848 8.277371 6.8648186 1.2870067 1.4002427 -1.7820839 -3.6434944 -3.690479 -0.93882227 9.0002575 3.2992582 -7.977728 51.51314
GO:0000439 -1.2041861 -0.71822864 3.215954 0.037898723 -0.18407564 1.7805455 -0.00060987676 -0.12507135 -1.8269342 4.9337153 3.4049406 1.4930619 1.0761386 -3.2676241 -0.34655693 3.8259938 2.645568 -0.9924607 -3.4346716 -3.5165963 0.86706424 0.89399606 -1.5377423 3.8074126 1.7746824 5.262868 2.2221544 -1.1995099 3.4445114 -2.9421349 0.9661743 5.870239 -4.0099516 -13.598228 -3.5282059 -2.8928719 2.6142497 -6.781413 5.146258 1.9061812 3.5589893 3.1553576 -0.38279414 -4.1952424 -4.7025685 -0.46527728 10.325484 4.538658 -9.962587 46.59019
GO:0000440 -1.3113835 -0.9834104 2.0720546 -0.9276038 0.89519924 0.82781553 -0.5564869 -1.0981086 -1.4054061 3.3882766 4.576689 1.0214626 2.221457 -3.435487 -0.97003275 3.3876164 -0.037348464 -1.7233366 -5.1382303 -2.9937456 2.2943103 0.13691618 -1.8464674 -0.27133593 -1.5361214 2.4080055 -1.2092495 -1.5523546 1.0022448 -0.54641676 0.40204713 5.2559447 -1.3201863 -11.555554 -2.276281 -1.2589146 3.1169188 -5.2420926 5.017646 1.8158813 1.0809324 1.2374002 -0.34552518 -2.9839947 -8.349302 1.3713756 9.263451 2.645285 -2.344666 72.642815
GO:0000444 0.7967848 -1.4870261 -0.4286585 4.7219853 -1.7124907 1.2436898 -2.7749593 0.7793046 -2.899716 -2.7317324 -0.86090857 -0.7927077 3.9333453 1.0176175 2.0121017 -1.6267035 1.7833202 0.6695681 -0.56818783 -1.2846273 0.403731 -4.877677 0.26743144 2.4846036 1.7654626 -2.4591255 2.2382643 -1.916889 0.7443331 1.6741488 -0.5730644 2.9149935 2.8329084 -4.683153 3.8253613 -1.0283296 1.526635 -5.8464627 3.0227103 -0.47603735 0.80345297 0.82480776 1.1628305 -4.409701 -10.13643 0.87265617 9.423987 1.2042613 0.27483806 91.19784
GO:0000445 2.7392418 -1.7942611 -0.89257354 2.094169 -1.2133495 -0.9504391 -0.06655254 1.4367211 0.5885401 -0.9492029 0.92869115 -1.012307 -1.5053705 0.69811666 -1.0866612 0.314495 -1.913228 -1.6887541 -1.5223527 -0.23431654 -0.8316471 3.6527667 0.83159906 1.0293956 3.0142732 5.8800993 2.1449187 2.5821223 2.3778102 -4.1456347 0.74775213 5.8051486 -4.929554 -17.724981 -8.084936 -4.3066516 1.8492696 -7.0460615 3.4823313 -1.3543278 8.474986 6.3326693 0.4448959 -4.143163 -6.735789 2.4331176 10.212398 4.686833 -14.840391 42.38475
GO:0000446 1.2471124 0.5277789 1.653877 1.1418722 -0.91818875 0.45865378 -0.186015 0.6881735 -1.3992308 1.658672 3.5639987 -0.99698645 -0.33154947 -0.79335296 -0.9678699 3.6653962 -0.0663055 -4.5326867 -4.6775665 -1.0966862 -0.360896 3.0496447 -0.026032459 -0.52485305 3.2962105 4.381305 0.21667534 5.3647594 1.3646959 -3.6001606 1.0851244 4.145743 -4.246617 -13.06273 -11.009284 -3.4324858 5.42654 -9.005329 7.3191504 1.393009 9.462893 7.547861 -1.386088 1.0189292 -5.8494906 4.7487698 5.4694014 4.786577 -19.013609 7.026861
GO:0000500 -3.0734622 -1.1979102 2.5980208 1.1204588 -1.3336886 2.6908145 0.554318 0.7566947 -2.7329216 6.238087 2.311386 2.8449085 -1.8674277 -2.7596843 -0.6846356 2.6415215 3.5878186 -0.62631136 -1.3900831 -4.1163073 0.072737224 0.40987134 -1.9332293 10.581478 6.7545457 10.911897 7.033023 -0.41193417 8.270923 -5.972077 2.065747 7.1487966 -7.572714 -16.839575 -6.042077 -6.9571886 0.100205995 -10.38772 -1.1256281 -6.8191156 8.354554 6.6175256 1.473973 -7.1763487 -3.5127263 0.54490757 12.546865 7.4260397 -18.796574 26.197231
GO:0000502 -0.9049706 0.6892772 0.28622466 0.17041402 -0.1778099 -1.7367553 0.18097025 -1.0313833 -1.5576245 -1.1286842 0.9404781 -1.9690663 0.06942709 0.2225695 0.85108435 0.19113912 -0.5105717 0.48716393 1.9236379 0.8598006 0.7309335 -0.24914207 0.94995767 -0.9574741 0.08032276 1.4072204 1.6734619 1.3136089 -0.15344998 -3.5675151 -8.957563 1.7146646 -5.1015286 -12.424491 -6.6464105 0.5041624 1.186573 0.91669786 7.254293 6.619557 8.53182 -9.610416 -4.6606274 -0.7428668 -4.1705136 6.47541 5.826257 10.325153 -20.601845 3.6489847
GO:0000506 2.929839 0.6133224 -0.5868934 -0.026606658 -2.101063 -1.0129517 2.2134762 0.45936927 -1.1018077 -2.397231 0.9980071 -0.56066114 -1.4186469 -0.5640464 -0.3553038 0.05103077 -0.89652175 -2.428136 -1.2278644 -0.93337053 1.1954247 0.35789245 -0.3011075 -1.1987543 -0.18114597 -0.38355783 -0.6730691 1.5673453 0.657488 -2.1931164 1.0260406 3.014095 -1.8852315 -8.674727 -3.221633 -2.452663 -0.11547066 3.3306203 4.190334 1.0043335 4.698371 3.0471606 9.131856 6.3995137 3.165418 17.407299 -1.12263 11.521575 -20.432446 4.745171
GO:0000775 -0.1746703 3.9303489 3.7758074 3.7297428 -2.500295 6.4731874 1.0874395 -1.4186014 -9.5548525 -0.07623506 1.6068542 -2.9196408 0.96129316 4.5305324 5.0258727 -1.0609319 1.3885671 3.4260495 4.4328423 -2.4443161 2.0470853 -15.2831955 5.0793586 10.880435 6.9966 -3.6740382 5.4828086 -2.050671 6.01614 -2.5898933 0.3005871 0.77079284 4.399471 -2.8264408 -0.15979123 -2.4469998 1.13357 -9.52667 7.9224734 -0.16517131 9.185375 6.5508647 1.3669548 -0.54379547 -10.364308 4.5232563 7.118143 0.68310213 -10.403919 48.57233
GO:0000776 -0.4514661 -0.0076937545 1.6341033 3.16953 -0.4789502 3.4418359 0.14145477 -1.010372 -4.205976 0.30151406 0.0058493013 -0.69072264 1.2317923 1.714605 3.114927 -1.2943486 -0.087462366 1.6549566 1.7483789 -2.3755329 1.1984926 -9.059924 1.3574697 5.1880226 1.8592894 -2.7915535 2.33327 -2.2950857 2.7938495 0.72513145 -0.5054028 3.9146411 1.0535549 -4.3787317 1.4127693 -2.2945597 2.2343771 -9.180544 6.7292433 0.08089446 4.1719413 4.227782 -0.24758354 -2.515997 -8.754932 1.4708784 7.630649 -0.33017102 -1.9977773 67.49219
GO:0000779 -2.310551 3.847813 3.9302063 5.0917206 -1.524686 4.7595525 0.36305586 -2.7316852 -9.516687 1.4423772 0.08557003 -4.2331266 2.4788716 4.7458053 6.937296 1.2199855 -3.4733212 2.1770234 9.269674 -2.2231102 0.733267 -15.458896 9.435147 9.813525 6.2019424 -3.396019 4.3788357 -4.5954823 3.6182249 2.9790022 -1.6686475 4.3432765 5.3538294 0.8084641 -2.903066 -3.343991 4.227448 -15.405279 10.952839 0.57905054 12.218893 9.81635 0.36037388 1.715653 -8.092867 3.847445 4.5849214 -1.6136259 -12.284036 32.18484
GO:0000781 0.9677179 1.1474811 -1.0667857 0.6885675 -2.4070084 4.717194 0.014503182 0.9409127 -5.3084297 0.33522436 1.5090107 -1.6898227 0.80653054 3.9913898 0.953826 -3.854515 0.09625586 0.24027964 0.47628772 -4.217849 1.8764014 -9.279323 0.9861728 6.9881186 3.8485336 -1.4727981 3.8915515 -0.76890427 4.8078256 -0.45228264 -0.30711296 3.7343035 2.0962303 1.725225 2.1078048 -1.8755343 4.104242 -16.770803 4.6219387 -2.7445233 8.730853 7.3637934 2.133843 -1.9653028 -7.409794 2.6315174 7.6390634 2.7532024 -11.856558 39.36041
GO:0000782 0.1754256 2.3203063 -1.964864 -0.6616756 -0.623985 0.08451018 -0.6598107 1.1725308 -3.5860448 -2.1623774 0.8463207 -2.8870692 2.4259036 2.857509 0.23181294 -2.2901552 -1.4293876 -2.2234213 0.5986003 -0.6473664 1.0227563 -3.819364 2.5204864 -1.5422808 -0.72847426 -1.6863812 -0.3808684 1.8087113 -0.65768576 -0.5910915 -0.4551809 2.6997538 2.91536 0.5249967 -4.0544295 1.2165782 8.560435 -15.128546 7.1598296 1.9656723 8.555791 4.4239106 4.494168 2.4778745 -12.705132 9.360437 7.3189263 9.59477 -23.940557 3.7894323
GO:0000783 -0.23605262 0.25074124 -0.8732388 2.4325197 -2.9558773 -0.19080056 -3.2515876 -0.092794135 -2.028302 -2.6602979 -2.061814 0.16204832 2.638656 0.10025102 1.0136371 -0.49676144 0.22223024 0.03189935 -1.059815 -1.1703137 0.73340464 -3.45229 -0.1393721 -1.247025 -3.7736073 -1.0203629 -0.7279622 -1.8399292 0.9507826 0.035940714 0.41672862 1.6929374 -1.2045448 -5.5804167 -2.1326954 0.06889119 5.30427 -10.792808 4.121782 2.9434075 1.2667325 3.4879706 0.49657184 -0.53847516 -11.699812 7.7945633 7.7331076 6.476966 -15.141925 24.150827
GO:0000785 -0.778272 -0.21536352 1.0615218 0.74355334 0.16917826 1.4560969 0.8809815 -1.430181 -0.81865054 1.50188 -0.69642794 -0.285613 0.58671373 1.0423659 0.2991073 0.70565397 -0.7634661 0.7140864 0.020559909 -0.23902139 0.1497135 -2.1929843 0.14886749 -0.1274376 -0.7206008 -0.9305548 -0.4731165 0.02460346 0.55106527 -0.3569903 0.034061212 3.4586313 -0.44026116 -8.188212 -2.6510162 -0.15979747 4.4617205 -7.98213 4.823833 1.5865016 3.7462776 1.6659969 2.7964406 -1.0743622 -12.562343 5.745068 10.321742 7.1179414 -11.597665 45.941116
GO:0000786 -2.4084384 1.7277244 -2.02404 -0.29378504 0.07084599 -0.8000903 1.4838325 -4.504354 -1.5772319 2.5880632 -3.4383118 -1.858602 0.98665637 2.7153914 1.6757739 3.821339 -4.6389756 -0.65538293 1.7882496 1.6501596 -1.2511936 -1.5860419 3.3906384 -3.9541423 0.78697187 -2.789903 -3.9603431 2.491563 -0.2550984 -0.0774866 -0.8321118 3.260279 1.7717065 -2.5749223 -7.876423 -1.0349232 10.236315 -15.651405 9.642649 3.4619021 10.710326 6.617947 2.9550316 3.9224515 -11.637645 8.825413 5.752334 7.90323 -23.375137 3.8394988
GO:0000791 -4.087652 5.5866823 -0.5501495 -2.773107 -5.560186 2.6632476 0.43457454 -2.1768832 0.07805295 4.047456 -8.166519 3.6809297 -0.6463766 1.2318727 0.83992547 -0.48989064 1.1239386 -0.10891321 -2.8627594 -0.07955039 -0.5855743 -0.42079592 -0.8530956 -2.61578 -3.2823641 -1.8213031 -2.696881 -0.31096694 2.073562 -2.3124027 0.08349328 5.1084356 0.84149116 -2.0009873 -2.829468 1.7867548 9.567783 -17.410465 6.135625 1.5287834 6.5703163 1.7921337 5.839957 1.3026899 -14.38955 10.255724 9.400173 12.1092205 -25.765373 3.6835742
GO:0000792 -2.1343813 0.6231992 0.42118552 -1.8526961 -3.5809033 4.3043184 -2.2317202 0.5967285 -4.6482196 2.546123 -0.9972293 1.3422279 -1.7044389 0.9420785 2.2780142 -1.4656605 0.19580342 3.857736 1.7355429 -1.5724325 1.7432015 -7.4483976 -0.17161898 6.2000084 6.082768 0.7066424 4.1740255 -0.62723404 1.7056061 0.8123068 -0.44794416 2.346021 2.231908 -0.28435692 0.59067315 -0.43823105 1.4568888 -8.518742 1.5202248 0.5705769 5.158706 2.9059455 4.199944 -4.012808 -4.435373 1.0532309 9.374439 5.7048726 -17.833496 23.174707
GO:0000793 -0.43606004 0.6361746 1.1845658 5.652662 -1.3923845 0.92856723 0.47349477 -2.352623 -3.2920756 0.3155054 -0.027953852 -2.092727 2.544288 2.81013 3.7366629 2.5694823 -4.82904 1.0004268 6.539411 -1.7480388 0.22048107 -7.399044 6.69513 1.5466266 0.60109323 -0.28028223 0.43679643 -3.2531874 -0.12165315 0.9743919 -1.1661767 5.475163 2.213745 -5.501128 -6.8927946 -1.2491975 5.7085037 -10.391846 8.339406 2.2123377 8.648888 4.7603745 2.6733005 1.8286856 -11.4048605 6.914735 6.9795785 5.2664337 -16.59311 15.921969
GO:0000794 -1.7780057 0.23989213 1.4017302 5.0209646 -1.5164065 -0.61375886 -1.8422656 -1.5045779 -5.325903 -1.4260345 -0.6741063 -2.876551 3.360749 1.3445959 2.888717 0.9165712 -1.6546787 0.95157063 4.0729117 0.35669553 -0.765218 -5.400664 4.389557 0.6859814 0.13508786 -1.276481 0.1928337 -3.7318811 -0.11726464 0.779448 -0.8862866 5.235594 0.975101 -1.1017506 -2.754307 -0.29306728 6.1368985 -10.399223 7.531627 1.1459334 6.762101 4.6451926 1.1523858 0.7936399 -7.483016 3.2513943 4.2691655 0.79461396 -8.646526 19.981161
GO:0000795 1.1889648 1.1350266 0.70354784 -1.3664976 -0.44593722 -0.75728965 -0.059996027 -2.662315 -2.3376772 -2.284399 1.684283 -1.1568408 -0.4851178 -0.5139444 -0.9505126 -1.1584847 1.3800735 2.810357 -1.1899314 -1.9367497 1.8065218 -3.25134 -0.9944173 3.6551561 -0.019514004 -1.4836818 1.7540977 -1.4679722 2.7902148 1.1404667 -0.050132353 3.3727818 0.5440925 -11.065061 2.2196062 -1.0095079 -1.4924239 -1.2750895 4.2757206 0.5671045 1.1809863 1.7137108 -0.6358091 -5.231595 -8.352792 -0.95798254 9.000925 -2.76659 5.3491206 111.402016
GO:0000796 -3.8584678 0.42754778 1.7714013 3.0319028 0.7879784 -0.24610402 0.7371393 -3.5024245 -2.7309847 1.1872523 0.11287067 -2.0432036 1.2302821 0.28551862 1.1984346 3.4500077 -5.1517353 0.32166234 3.9060035 0.76170874 0.94937664 -4.1407547 4.3885164 -1.0345832 -4.54538 -0.8525087 -1.6042254 -1.7646246 -0.60470647 1.8567688 -1.0672269 5.262405 2.928291 -1.3119706 -5.989689 2.2506561 6.557322 -11.728168 6.252441 1.8639911 8.02078 2.6628854 5.9061756 2.7299287 -13.57792 8.905418 9.180306 9.951198 -26.002958 3.205054
GO:0000798 0.040061038 -1.4955087 -0.86588883 5.3771753 -1.6370353 -2.1924086 -2.4724562 -0.84815603 -2.2224314 -3.7295194 -0.117977105 -0.5369979 3.4310396 0.17872654 2.0390835 0.46897212 0.06084652 1.3372831 1.911967 -0.92043495 -0.12603919 -2.0127342 1.0658993 -1.0987707 -2.2412913 1.3056617 0.3902234 -1.0232311 -0.33829987 -1.2321448 0.26417112 4.829008 -0.82400995 -12.901846 -5.0876756 -0.31501365 3.323989 -2.0885718 4.3424296 2.2292318 2.830897 -1.358209 4.223483 -1.7463105 -14.491126 7.126234 11.306545 8.512223 -13.482253 48.115894
GO:0000800 -0.9856556 -0.7104301 0.16840272 -2.2124562 0.018239725 1.0587058 1.4093667 -0.8428004 -0.5789742 -0.6258524 1.0737408 -0.72931546 1.4427743 -0.68305516 -6.87033 -0.83091 4.1795053 2.799688 0.8456999 1.3906665 2.7273605 -0.3573974 -1.1295063 6.2716336 -3.6658223 -5.2835164 -0.7375053 -0.4723435 1.7202882 2.4222355 0.03470169 1.506806 2.6248496 -7.13805 -2.1039228 1.2761626 -1.9287978 1.948613 2.728863 0.107347414 1.9543486 -0.71020156 4.095903 -1.5765336 -10.631214 3.705263 9.36203 3.196071 -7.612449 58.64127
GO:0000801 -0.52210087 -0.6146902 0.15389036 -2.4693499 -0.23918298 0.53071386 1.3306656 -1.4323397 -0.7020183 -0.82294303 0.9338272 -0.4597809 0.644326 -0.7683627 -7.034981 -0.5728913 4.5930243 3.0388129 0.8963512 0.8246225 2.8171973 -0.47833496 -1.1355501 6.7931924 -4.8743567 -4.8914113 -0.56361574 -0.37527025 2.4625518 1.4869074 0.22442226 2.40014 1.4732513 -9.247766 -4.288201 1.0964254 -1.8545264 2.4671307 4.1845336 0.7680798 3.1981235 -0.1588069 3.9823563 -0.62376165 -11.140437 4.4387355 9.114963 3.4150753 -10.116978 47.61837
GO:0000802 -0.39390394 -0.47280124 0.3904851 -2.3839517 -0.3359342 0.9574884 1.3649873 -1.4324698 -1.2410933 -0.71611243 0.92403555 -0.4275329 0.46892145 -0.58337563 -6.563781 -0.73914564 4.877774 3.2053876 0.9180261 0.5285523 2.8955357 -1.375947 -1.0624067 7.599734 -4.323575 -5.0527463 -0.052808706 -0.5196403 2.8793736 1.3783913 0.21174067 2.5028028 1.476304 -8.927162 -3.8209538 0.87198925 -1.9667487 1.9164546 4.2658134 0.6509175 3.3163688 0.16309485 3.9330645 -0.86186254 -11.1022 4.461318 8.991609 3.1531398 -9.883498 48.608055
GO:0000803 -3.2731924 3.703714 -0.59603906 1.2634872 -2.3342838 4.2044053 -0.0133831 9.352928 -3.3145592 -2.291467 0.36330315 -3.6422079 0.42901057 4.5851316 -2.5599868 -2.266059 -2.4061928 -6.048248 -0.17594177 -3.0062335 -1.4432049 -4.2116904 6.4617634 0.75918454 0.7985528 -0.8517585 4.1533017 1.1462224 -3.5608969 -1.231669 -0.6960652 0.13691661 3.955502 -1.044496 -1.8651823 -0.56358945 -1.8064175 -6.7377176 -2.0000446 6.4403605 4.3934436 3.7383819 1.9110036 -4.313023 -2.337218 8.625376 -4.88445 -12.292564 -12.080614 2.9190104
GO:0000804 -2.0200696 5.1615806 -2.1395063 0.76993215 -3.5369275 6.1687403 0.7659982 11.060215 -4.665274 -2.4152563 0.45763972 -2.4545379 0.0033733377 3.196739 -2.9107893 -3.1557488 -2.1879444 -6.006925 -1.4171311 -3.2531612 -0.76153564 -5.1522794 5.369974 1.2192415 0.047715276 -0.57551694 3.78487 -0.05362462 -3.0395994 -1.5124887 -0.75269496 0.464257 3.8151863 -1.2970512 -1.6316544 -2.87639 -5.5902085 -8.880252 -8.030648 11.644099 1.1718996 2.1994884 2.5485475 -10.528062 -1.3055762 14.090661 -9.891985 -22.906488 -16.021408 3.70205
GO:0000805 -3.6657574 3.9491384 -0.41961917 1.6188954 -3.8873124 4.8024173 0.70489615 8.959535 -4.566452 -2.7039742 -0.93240446 -3.4529953 -0.8937809 1.7633867 -2.9258199 -1.4604512 -0.25339314 -4.975845 -2.0253844 -0.9535017 -1.6054869 -2.4153848 4.279071 1.120903 3.1149035 -1.2865353 3.4761193 3.47745 -2.0658343 -2.6669948 0.12616879 -0.7691176 1.511594 -3.5676372 -1.1186556 1.9655184 3.788861 -0.7897588 4.437144 -1.3753842 4.779696 3.4921844 0.9500305 0.8603255 -2.3934896 3.6501667 0.03663544 -2.1357057 -9.1627 2.424059
GO:0000806 -2.221858 5.3063807 -2.2221246 0.9075212 -3.7691922 6.296801 0.8503654 11.50926 -4.731111 -2.5431879 0.44553775 -2.621687 0.09456117 3.1812947 -3.0846927 -3.1037784 -2.2864904 -6.1420174 -1.6262186 -3.3250797 -0.6919035 -5.1978154 5.5015163 1.2234968 0.06796827 -0.5487733 3.8267574 -0.11202807 -3.056368 -1.5708548 -0.744488 0.3994022 3.9100423 -1.2989199 -1.6222153 -2.8088248 -5.62516 -8.833429 -8.018003 11.646894 1.251889 2.2538545 2.5778992 -10.49144 -1.2018822 14.1296835 -9.937537 -22.888329 -16.070154 3.6972682
GO:0000807 -3.0865617 5.3022313 -2.507335 0.5982392 -4.0371547 5.217396 -0.36280626 11.524589 -5.3130183 -2.8412547 0.47153866 -3.9125376 0.6234456 4.8599 -4.0314264 -3.5729675 -2.9619265 -7.0961323 -1.6161537 -3.2182744 -1.3725524 -3.4826999 6.369634 2.0043721 0.80610824 -0.83762085 5.1701527 0.33995223 -3.393916 -1.8766328 -0.20689142 -1.4376528 3.842183 -1.6412022 -0.26405334 2.7630048 2.450566 -0.2346209 4.272346 -2.636967 4.830695 4.0292373 0.3727029 0.6894152 0.34670454 2.4014657 -1.6304885 -5.697543 -7.196857 2.8161066
GO:0000808 -0.778409 -2.130971 -0.34184247 5.784978 -1.4765372 -0.793204 -1.710974 -1.3847362 -3.3627663 -2.236228 -0.50192446 -1.7162571 3.5951326 0.28003147 2.5966506 0.79951185 -2.3195179 0.6751393 2.2378063 0.12301114 1.094727 -3.7739146 2.4457164 -1.4392799 -3.4358523 0.5019047 -0.96856874 -1.9025168 -0.12498887 -0.18834671 -0.42663595 6.659693 0.25418037 -8.809978 -5.6714067 -0.22182477 6.369629 -11.169976 8.670612 2.6892524 6.1785836 2.7601461 3.129597 0.03177075 -12.812213 6.55684 8.91588 6.1060624 -14.880285 32.542683
GO:0000809 -1.9483309 1.9672711 2.4951026 0.7640832 -4.300937 3.906814 1.0962988 -0.5073229 -4.098607 0.0318689 2.9636598 -0.26111895 -2.1240194 0.042142168 1.47366 -3.8922145 -0.6720959 2.0067391 -0.5656646 -1.677715 3.0823019 -4.610973 -0.2615319 1.3690385 -2.3801951 2.4546573 1.156104 -0.6586808 1.365654 -2.796595 0.25293234 6.935996 -4.636199 -20.233095 -5.0166802 -3.2794366 3.2861707 -4.7475348 8.395703 2.4346132 3.2985985 2.2932758 -0.9136463 -4.0882797 -10.35769 2.035872 9.937941 0.37077278 -1.0382192 92.03561
GO:0000811 0.9405745 -0.21122898 -0.85300744 3.231191 -2.0694687 -1.5901917 -2.4323454 -0.14428537 -2.468217 -3.2601616 -0.2320804 -0.22006254 1.2918174 -0.92126065 0.074469306 -1.3343197 0.18505502 -0.3837427 -1.3681836 -0.20058447 2.4361076 -1.4676291 0.36699536 -2.0991466 -6.15966 0.45235276 -2.2254841 -0.42692304 0.85678554 -1.4161696 -0.117508896 7.578251 -1.713452 -6.1117887 -6.1920357 0.2863207 10.148912 -14.988583 9.616823 2.07922 5.934762 2.993265 3.0634565 1.3082451 -10.899235 7.8506513 6.7956696 7.1742845 -18.712797 2.4917922
GO:0000812 -1.3664937 1.8003533 1.242261 2.2965095 -0.89634204 -1.483849 -2.3374414 0.624852 -3.599036 -3.0266411 0.8653717 -2.3379483 -0.07798795 0.06069669 0.012276582 -0.05412662 -0.5712315 0.01318845 0.79076517 0.9006171 0.9072806 -1.8905764 2.789863 -0.75278354 0.6252418 0.280476 0.652166 2.5751417 -1.1701266 -0.78114647 -0.085394464 2.6132824 -0.68872267 -6.8335137 -5.3965826 0.75733197 6.508786 -1.9677826 7.076197 4.2385907 4.1783543 0.6499305 3.2962782 -0.025771514 -6.5116105 4.686217 6.371071 6.832817 -19.443306 2.4713643
GO:0000813 2.4217145 0.081748374 0.6801448 0.3616614 0.104347736 -0.35736263 0.5002221 -0.43732032 -0.2713726 -0.759026 1.0925438 -0.21644865 0.78767806 -0.58661026 -0.07116665 1.286488 -2.9647965 -0.09899223 1.1065805 1.1887059 -0.5804261 -0.07273631 0.7940049 -1.4753569 -3.0088286 2.911087 1.1992452 -0.8310671 -1.7905957 -1.616748 0.18610083 3.7783382 -2.4873407 -4.7157974 -3.7418923 -5.974754 -0.37848046 4.040463 5.7913194 0.6383629 2.428144 -2.6625333 5.788417 0.0016286485 -13.539705 8.104192 9.208457 9.299222 -17.958576 18.312672
GO:0000814 2.6401138 -0.115548864 0.7950209 -0.007956189 -0.2901116 -0.5896273 0.9015932 -0.3988018 0.015811991 -0.8989162 1.0431231 -0.13364594 0.24355006 -0.909724 -0.23420739 1.1316638 -2.9304385 -0.013733483 0.78787214 0.85364145 -0.027095187 -0.19036278 0.19612984 -1.4059823 -4.177836 3.5361466 1.0382911 -0.97670776 -1.3735609 -2.7172148 0.47832537 4.7522674 -4.6468253 -7.716256 -5.5768805 -7.72677 -0.509083 4.4734316 8.276088 1.2801319 2.8054218 -1.7472854 4.63427 -0.11525237 -13.783429 7.909743 8.957964 8.282607 -17.39623 20.45687
GO:0000815 2.274852 -0.25334758 -0.8066636 0.14983933 0.22913204 -0.56351465 0.27370906 -0.5079146 -0.47880867 -0.8089576 1.0798957 0.12001085 1.2199028 -0.047876857 0.6298719 0.47424746 -2.080811 0.56790704 0.85295093 0.31507427 -0.34442458 0.29567695 0.8944269 -1.0905882 -2.4412227 1.7926067 0.3270392 -1.0867264 -2.0424955 -1.688809 0.3363859 2.776807 -2.1931505 -6.817312 -5.0583434 -7.58925 -1.0719379 3.9320886 8.0262 0.84801185 3.0420027 0.015838325 2.2597888 -0.17628497 -10.711909 4.638047 7.4208565 3.7709377 -10.605723 36.1721
GO:0000817 0.3289853 -1.3143917 -0.024458375 5.7160044 -3.0503302 -0.59624857 -4.6151586 0.65161747 -5.804824 -4.286334 -1.8389865 -0.7922811 2.805428 -0.2760234 1.7917457 -1.5235842 3.4170656 0.7098702 0.11171497 -0.73626393 1.3796281 -5.277078 0.79299235 3.20899 -1.0640839 -1.7740843 1.2274687 -1.2881511 2.504579 -0.8288812 -0.24860145 5.4822736 -0.53209484 -3.2231607 -1.7361051 -0.3387233 6.9905925 -9.642123 8.055165 -0.8481705 3.7813518 2.8054144 1.1404524 -0.28024468 -6.640441 3.875102 3.466004 0.8812521 -10.159077 7.310277
GO:0000818 0.7022259 -2.1327698 -1.5596778 5.500706 -1.5003085 -0.5778981 -4.1719303 1.1732335 -1.9242741 -3.9506395 -1.4823275 -0.6936936 5.4871097 0.55900455 1.7509068 -0.7906279 2.162444 0.15303099 -0.61022305 0.14254957 -0.8965849 -2.0196753 0.5540474 0.54308933 2.0334237 -2.1547625 2.2045982 -1.7506485 -1.080036 2.239457 -0.61653847 1.2190691 3.5919716 -4.5514417 5.1467056 0.046921037 -0.2829835 -1.3423517 0.20844017 -0.8341384 -1.1123414 -1.0452062 1.7316697 -5.2450166 -9.968383 0.4495104 9.595635 1.1862148 1.8579487 99.413666
GO:0000835 -0.78683645 1.0691934 1.0405134 -0.048120085 0.50861317 -1.578184 3.2382367 -1.5878024 -0.7683228 -0.17918807 0.5452062 -2.1349845 0.055657316 -0.72589153 1.5136399 2.9812636 -5.535562 0.1714017 4.400768 1.4669554 -0.021832423 -1.5487025 3.3908744 -1.343429 -1.0702095 3.0568125 -0.5669227 -2.6384363 -0.94417995 -0.5011626 0.33884197 2.6582193 -3.5872178 -8.271701 -6.759259 -3.4312663 0.84320366 3.56862 5.976478 3.8128023 2.1970859 -2.7267463 5.6985774 -0.9781272 -12.495139 8.925364 10.714126 13.176974 -25.026304 4.0431275
GO:0000836 -0.3798401 -0.27364028 0.73258144 2.2109354 0.6745933 -1.203586 2.9384599 -1.9692813 -1.4473097 0.7249507 1.0591066 -2.8698995 2.120036 0.2820786 2.2859135 3.9725497 -7.375392 0.9047378 5.5086403 2.8025787 -0.39588088 -1.534728 4.499712 -2.0712976 -0.0007086358 4.178807 -0.5159454 -3.734938 -1.9993877 0.22149046 -0.3485377 4.0208526 -2.604796 -11.81492 -7.924456 -4.2606783 0.7768183 2.568505 5.9227777 2.305743 3.268609 -1.6639086 5.1238847 -0.6089145 -15.321851 9.031546 11.212131 10.258269 -18.192759 31.81985
GO:0000837 -0.09085612 -0.286254 0.93067664 1.893108 0.55164534 -1.1979866 3.0222695 -1.7974687 -1.165536 0.6695369 0.9240306 -2.5997026 1.9445599 0.043047056 2.0872188 3.948872 -7.191838 0.9450837 5.183983 2.7759678 -0.22801632 -1.4774513 4.05845 -2.231896 -0.5968859 4.40336 -0.479437 -3.7468033 -1.9002584 -0.24856015 -0.2229697 4.4040833 -3.5224302 -11.528657 -7.7517066 -5.7370276 0.37097842 2.9577622 7.1446533 2.1827428 3.1811047 -1.5563581 4.719048 -0.7412451 -15.080582 8.780168 10.945111 9.746356 -17.547974 32.426105
GO:0000838 -0.28719822 -0.2822831 0.7927161 2.0794165 0.8161435 -1.5591191 3.3394098 -1.8442852 -1.0509473 0.19373788 0.9414239 -3.5303342 2.270194 0.046325255 2.6969805 3.7968934 -7.3412447 0.19982353 6.1163163 2.4807706 -0.3564143 -1.90661 4.695206 -2.5721092 0.15404697 4.6843476 -0.5315957 -3.6375828 -2.2007043 0.1759123 -0.10727678 3.5846848 -2.680273 -10.505878 -7.824385 -5.843714 0.27344048 3.3346758 6.8738294 1.8393414 3.4640627 -1.6352738 5.233405 -0.8352206 -15.26163 9.586396 10.336663 10.087863 -19.129932 29.657146
GO:0000839 -0.57179713 -0.31442145 0.6045801 2.3810196 0.80580205 -1.1042365 2.9030435 -2.0284786 -1.5474744 0.71572065 1.2036245 -2.982175 2.2358816 0.378833 2.4177127 3.7964544 -7.3680906 0.9460862 5.530079 2.6875103 -0.40970653 -1.5153036 4.558747 -2.012793 0.373624 3.8861122 -0.5444425 -3.7477384 -1.9968592 0.5458214 -0.6269164 4.0093546 -2.0159228 -11.816958 -7.434574 -3.1463041 0.9583127 2.067178 5.015743 2.2786553 3.141949 -1.8588716 5.218455 -1.0042762 -15.179333 8.696001 11.489527 10.150444 -17.706112 35.727734
GO:0000922 -3.1855297 -0.4820786 0.051912233 -0.45807457 0.6001573 1.1328951 2.0581183 -0.8787462 0.7380416 1.031985 -0.11142905 -0.30404234 1.6116413 -0.26730394 -2.2377598 0.2848145 -0.59760666 1.4024088 1.670221 1.6539582 0.63275576 -0.67599624 0.6480312 1.5386963 -0.41597506 -3.0808585 -0.77375466 -1.6915344 -0.92313963 2.3045554 -0.6297709 1.0117975 2.7965515 -6.3037424 1.1189383 0.11847863 -0.9649187 0.667543 1.8090264 -0.15738901 0.2755588 -0.30991983 1.3437725 -3.5538416 -7.716388 0.46010804 7.8023396 -0.44027284 1.9218713 81.43031
GO:0000923 -1.6021395 0.20577693 0.86858386 -0.46833193 0.20569998 -1.7763402 -1.2192986 -1.3483319 -0.05306946 1.4242144 -1.3291903 -0.37966183 0.1312327 0.93020767 0.30506277 0.97402734 -1.2700189 0.94735444 2.827982 0.3670763 -0.8924043 -0.8413093 1.3486269 1.0678465 1.9837165 -1.2446383 0.27201483 -0.7676474 -0.75866294 0.050965156 -0.43652806 -0.7664079 0.22686315 -1.2735133 1.2809472 3.0198357 5.8046393 2.3334491 5.4322534 -5.745612 0.03327177 -0.32550448 -1.4014727 -2.3617163 -0.037431378 2.8691103 -2.4359186 -7.5529213 -7.0920167 1.0209484
GO:0000930 0.3971574 -2.756129 -2.929653 2.9778836 2.2343886 -1.6009139 -0.6319668 -0.84707135 -2.8329446 -0.8780126 1.4085745 -2.472812 3.30986 3.270487 2.577417 3.1563902 -3.5403855 1.8163146 3.0666535 2.158484 -3.8406084 -0.54992884 4.5982447 -2.8771029 0.55019104 2.7853217 -0.010297401 -6.8519344 -0.38008657 -10.814242 1.6010317 -4.660561 7.026074 -10.4081955 -6.4795156 -1.2002256 -1.593855 -0.2170264 6.6165366 2.859667 7.573881 0.2672291 -1.529595 0.9462157 -7.560138 5.634733 4.901723 3.130903 -11.392556 38.419212
GO:0000931 -0.9752198 -0.6051194 -3.9303548 2.6458805 3.1845345 -2.319129 1.3361367 -1.0982834 -4.045847 -0.8656668 2.259151 -4.526452 4.1327734 4.441772 3.5527403 4.018951 -5.9649405 -0.07784634 5.5653763 2.8311975 -5.081666 -1.4117281 8.685097 -3.6178284 1.325496 4.676708 0.29440174 -9.178903 -1.0711042 -13.05894 2.1795428 -6.4289355 9.478561 -11.619423 -9.546922 -1.7087772 -2.0754538 0.19315512 8.647538 3.4806783 10.921254 2.1123993 -2.0473127 1.9517018 -6.511101 6.642209 3.1612763 1.303436 -14.161447 29.50853
GO:0000932 -0.055484407 0.40304664 -0.32227844 -2.2214942 -1.6703244 -0.5375037 -0.9904665 2.7879856 1.635477 0.94351315 0.56845415 0.058616035 -4.0937934 -2.3836532 -1.2145337 -1.1767961 2.0763807 3.8950968 1.4537859 2.1982687 -2.5952334 7.133171 -2.452057 1.7303345 5.715314 8.1968565 3.5811253 -0.14010592 0.9585131 -1.5526628 0.4095355 3.0108902 -3.8447206 -4.656189 -2.0406108 1.2203184 -0.4262762 -4.744327 -6.63313 -4.8666186 3.737215 3.2964716 2.7466927 -2.9045188 -7.5712686 4.016692 12.701863 13.060881 -26.59865 6.6860623
GO:0000933 -0.29083246 -1.377864 -0.28956443 -0.0004216583 0.5637642 -0.60860837 -0.4045291 -0.58916074 1.072332 0.9025169 -0.844486 -0.35447222 -0.7728987 0.19849308 -0.7954029 -0.01614758 0.17614995 -0.009752766 0.695248 -0.16585927 -1.6184745 0.1759193 -0.82414883 0.8086127 1.1148417 -0.60363334 -1.2757494 -2.3008614 -0.12264654 -0.74908763 0.11514392 0.5594231 -2.312012 -0.660814 2.6995633 3.9870353 6.819408 1.794968 1.7579769 -3.776213 -3.1081219 -1.4773028 -0.0038510705 -9.382091 -0.974282 8.550697 -7.4836807 -20.503412 -13.300053 1.0154477
GO:0000934 -0.8421225 -0.16928244 -0.09788883 -1.3705324 -0.15448739 -1.2688848 -1.0967071 -2.923446 0.56005406 0.80685467 -2.6249611 0.60370845 -0.3975389 0.96304446 -0.5352348 0.6168747 0.21219632 0.63394505 0.52303773 -0.3402903 -1.2171226 -0.5689181 -0.21731232 1.6805732 0.51934636 -2.207221 -0.2433266 -0.63344735 0.83781934 -0.38998 0.19472252 -0.27824596 -0.81345147 -0.7831528 2.0258555 2.767679 3.3879976 1.7045885 3.347202 -3.4659004 -1.0403043 -0.30224612 0.01766864 -5.951061 -1.0268782 5.665951 -4.708211 -13.8563795 -9.35389 1.0091275
GO:0000935 0.5038374 -0.39007992 -0.08000465 -1.0990345 -1.0085535 -1.9064947 -0.68991506 -1.6990733 0.5284964 1.2966723 -2.0972724 -0.38012812 -1.17196 0.4784049 -0.94887537 0.7652607 -0.10528814 0.01726946 0.49135453 -0.12817088 -0.46019965 0.6211186 0.94565606 1.3434057 1.7757292 -1.0210943 0.014706584 -1.2550131 -0.25093907 -0.087534435 0.067457266 -0.7527013 -0.17949878 -1.5046787 2.034761 3.2590017 6.486188 1.6544951 3.308071 -4.959159 -2.948064 -1.066685 -0.1427421 -7.65689 -0.4742388 7.141272 -6.021811 -17.124956 -11.383373 0.94891876
GO:0000936 1.5467262 0.6136078 -0.8981209 -0.092578836 -2.247458 -0.8549559 0.11513837 -1.2008115 1.2247391 1.0416483 -1.6496891 0.33259913 -1.084375 -0.41515842 -1.5177758 0.26632702 0.10273064 0.2504533 -0.23501691 -0.4080373 0.875202 0.25658184 1.933905 1.3980781 2.491273 -0.9023284 -0.92161566 -2.4265127 -0.9316903 0.9042101 -0.3575822 -0.3630362 0.3573513 -1.5837508 1.0117476 2.0160997 5.922398 0.28601152 1.4535115 -3.536768 -4.1564016 -1.6236234 0.26428753 -9.452386 -0.3597735 9.448118 -7.6927924 -20.803856 -13.748878 1.1189264
GO:0000937 -1.2408457 1.3441432 -0.117150396 -2.2013881 -0.77283627 -1.3981439 -1.464835 -4.5271945 -0.15300502 0.30350557 -2.9935405 0.8229115 0.5002808 1.3647238 -0.19293968 0.6900572 0.41668877 1.0202569 -0.19138348 -0.5764081 -1.7027367 -0.8800758 -0.7062376 1.5526526 0.35283455 -3.588538 -0.25552994 -0.57931507 1.3287094 0.11615009 0.119421996 -0.12468029 0.24211973 -0.74975103 3.0928705 2.1412323 0.56257373 2.557651 4.9855995 -3.4907277 1.7373718 1.4131833 -0.5019787 -2.4502606 -2.7045145 0.50965774 0.9709455 -6.2288427 -2.0037644 30.036081
GO:0000938 2.1865766 -1.5174828 -0.023332242 0.17408511 0.25174147 0.7927832 1.1921965 0.6153697 1.0852704 -0.11498689 -0.10157365 -0.37553236 3.946061 -0.81828815 -4.5971723 2.0470202 -1.4764447 1.4105799 0.8242287 3.550396 1.0093585 1.6227016 -1.800214 2.3940141 -4.1303387 -0.24305019 0.37058574 -0.5125646 0.5480313 -0.48796126 0.6813947 2.055589 -1.4659429 -3.7108502 -2.4326532 -5.5184464 -2.0145323 3.7967062 6.984394 0.042599786 1.8585981 -0.43071336 2.2457538 -0.3518461 -8.058398 4.1989975 5.1997313 1.8847766 -8.494996 23.474564
GO:0000939 2.3621154 -0.4664141 -1.021796 3.5830715 -2.1396253 2.668477 -0.3207437 -0.2360232 -3.6650035 -0.5134983 1.3782077 -0.32274026 2.5834014 2.387099 4.034171 -1.7166854 0.0593395 0.61516905 0.9297541 -1.8329592 2.1446435 -6.5583873 0.057310384 3.478218 1.3928986 -0.3024705 1.5945286 -1.2918032 2.0472357 -0.77331257 -0.08127192 5.008195 -0.35938334 -3.0524745 -0.9357952 1.7838209 2.3975577 -8.500755 6.396269 1.2921624 7.168199 3.505559 3.1629527 -0.36338907 -12.331077 5.98239 8.444871 4.669288 -14.793544 33.405064
GO:0000940 0.6090324 -0.25784132 1.08079 2.5919685 -1.2616165 4.5129933 -0.14310478 -0.913638 -5.798645 -0.5053115 0.090364516 -1.9589908 -0.26387313 1.8454466 2.3431907 -1.7592617 1.9420484 0.6428278 -0.9013272 -2.744501 1.2351829 -9.623449 -0.9595192 5.1041512 2.85046 -3.5422754 1.7904414 2.1045036 4.7274275 -0.5283669 0.028128514 3.5089676 0.29294255 -4.755836 -1.8189638 -2.4228857 5.125047 -9.897595 6.5928216 0.9711572 5.700797 3.5158386 3.447853 -1.0678144 -12.204248 6.170007 8.349451 5.9126835 -13.289941 39.409443
GO:0000943 -2.2641869 1.1184021 -0.13326441 -0.2608757 1.2129668 -0.49465182 2.6643043 1.6788365 -0.7644744 -0.6624997 -1.06378 -0.7499416 1.1805948 -1.389485 -3.232322 -0.34143928 3.9586136 -1.1054226 3.2347925 2.9221635 -0.45161015 2.7963061 1.8745111 1.8104414 -2.1076624 -0.59492314 -0.20474394 -1.0501868 -1.7308568 0.8225005 -0.55519015 2.8493 1.6726757 -2.943161 -4.5340962 -1.4469855 1.0689101 -6.7384343 1.0390325 4.4844537 1.9826279 0.5997935 3.4706585 -4.588224 -7.7449946 10.50755 -0.09608794 -6.0137854 -17.551 1.8755624
GO:0000974 -0.8097726 0.8744065 -0.03992186 2.4952002 -0.33412257 -0.3760273 0.25265822 -1.1893348 -1.055978 2.171417 -1.3357481 -2.6183414 3.3073604 2.6089106 2.50719 4.418183 -8.066069 0.7752778 6.3441477 2.6383712 -3.2399468 -0.4005276 7.034118 -1.4749817 4.98923 2.1846137 0.3803894 -3.6648061 -4.05007 2.7737398 -1.4994112 1.5108044 3.8215227 -9.176541 -5.7427764 -0.911421 -0.0001325356 1.3196728 3.4626822 1.5063268 5.103254 1.5093999 2.5988657 -0.25295454 -10.171897 3.7531774 8.006013 3.5336404 -10.489717 50.482384
GO:0001114 0.5280329 -1.8849484 -0.7116478 2.6510127 0.9611791 -0.34288347 1.8181561 -0.09180494 0.020687513 -0.07829643 -2.2519953 -1.5075437 0.00882984 -2.526463 0.5617966 1.736635 3.1963518 -0.9295682 -2.291912 2.4260788 -0.97145957 4.2082386 -2.311189 -3.9365275 -0.3821469 -0.8812451 -2.7925203 4.179889 1.1012133 0.011599546 -0.21320382 3.2541406 0.9021678 1.2165856 -2.989133 0.73473436 10.8395195 -16.969812 3.9954667 1.7011456 5.1515455 2.0665457 6.020028 1.1789312 -14.397055 10.323927 9.281 14.782116 -27.85293 3.1707678
GO:0001400 -2.2245872 -0.8418301 0.6790425 -0.64162487 -1.0730411 3.3836944 3.1697297 1.68534 -1.0315149 1.4464058 -1.1478889 -0.09306561 -0.6345313 -0.22713618 -5.7290974 -1.9552596 5.5967135 0.90201765 0.93222004 1.1824455 2.9995513 -5.1696053 -3.8341713 9.525363 -3.201265 -3.401182 -0.052009664 -0.23584422 1.179396 1.2549855 0.12118079 0.50827855 2.6241777 -4.39461 -6.889652 0.8893042 -0.715258 2.861601 3.8463557 -0.7767649 3.4875998 -0.16809323 4.6311707 1.6272516 -8.079455 5.751591 5.5499034 4.2791214 -16.192255 2.7184575
GO:0001401 7.1808496 -3.8537765 -3.1156666 1.8683714 -0.274553 -0.43525442 -0.23814951 0.14337556 0.51776326 -1.3645111 -2.1230824 -1.9873114 4.368274 1.6342766 2.769693 2.5707843 -0.9509235 -0.88201547 1.5381012 0.30135253 -3.0912182 1.422884 -0.23017228 -1.9805709 -3.5880682 3.4726002 1.269978 -2.455016 -0.23963365 -4.173383 1.0343459 4.7817526 -7.318847 -4.6078916 -4.171693 -14.948378 -2.8068366 3.6734054 14.00633 0.19112636 4.272657 0.8956947 1.7385731 -1.1773757 -10.946476 6.415371 5.810632 3.0503945 -13.920362 17.04338
GO:0001405 0.8860881 -0.27533615 -0.6790927 0.5618843 0.0030238072 -0.52663356 0.7858751 -1.5250425 -0.12665616 0.16796538 -1.3496374 -0.7840997 2.0743306 0.21916275 0.9098398 1.8077916 -2.6825154 0.68641365 1.4420639 1.1492996 -1.8044014 -1.40516 1.5122606 -1.4341469 -0.8842494 0.4244395 0.31437087 -1.8656646 -0.6666042 -0.43001458 0.5039008 2.396795 -1.7014269 -2.4990435 -1.52776 -4.0741944 -3.0119755 2.7567854 7.7620716 1.5401341 0.54969627 -2.785929 6.3162346 -2.8799405 -13.011851 0.5207633 -3.3527951 12.735011 -21.069931 5.1752243
GO:0001411 -0.99374634 -1.1226387 0.46839672 -1.86427 0.8402257 0.43187 -0.8105532 -0.75742185 -4.337305 0.7925361 1.6386801 0.1718941 0.21246254 -1.1793671 0.05050243 2.55445 2.5743291 -1.3421109 -3.2468693 -1.5708178 0.43413118 -4.0756435 0.93931746 3.4593005 1.8300529 0.0024214038 0.8833377 -4.0432987 3.2758868 -7.0557327 2.10073 -3.0341425 3.4966407 -1.597556 0.07586017 2.5529418 2.2484326 1.4688116 5.8482313 -3.997172 1.6173955 0.9156784 -0.22233751 -1.0082057 -1.3211688 2.8873456 -0.70619094 -5.540776 -8.016404 1.1731337
GO:0001518 -2.0924246 1.0991571 1.3377273 3.3027718 3.0722787 1.5889765 -0.6365712 3.2322965 -0.2887028 2.356303 -0.6286944 4.373038 -3.84959 0.43662524 -0.4516286 -4.36058 -0.67363477 1.4724772 -1.773058 -1.2301546 4.4465175 -2.6193736 -1.3151084 4.213755 1.1321901 2.5491529 2.133372 -1.1006496 4.3972044 -3.2932377 1.3430775 2.2762825 -6.7290454 4.0338435 -2.4695556 -15.529225 -4.2542267 3.2208512 6.171203 -7.5949264 4.1501765 1.0092512 4.7036166 -3.5842826 -7.4210863 5.776489 7.929625 8.387182 -24.173866 2.7539244
GO:0001520 1.4600116 -0.25126398 -2.3515036 5.3972735 -1.8147261 0.6823934 -1.8416804 4.6921654 0.38140765 -1.9978579 0.6183578 -3.3764288 5.2730236 3.7400508 -1.0507519 2.2560122 -3.0499914 -3.0458953 1.1904075 0.34642845 -2.0626018 0.49190858 5.6384 -0.22974606 2.3576977 -0.307311 3.6106086 1.3995242 -2.21895 1.2959142 -0.5585346 -1.3598715 4.405029 0.17187664 -1.7734424 2.4687452 -1.3632643 2.0796387 2.0010378 0.2429866 5.550176 2.352405 3.3717847 1.4105552 -6.674006 5.189589 3.206584 1.2418226 -13.201161 10.907653
GO:0001527 -2.2271168 0.40808186 -0.3148491 1.2530876 2.4259346 -1.3863797 1.0419248 -2.9901195 1.6179044 1.776384 -3.1699119 0.95138764 1.1438069 0.632335 1.9568975 3.2719052 -2.9780192 -0.09846218 4.079774 0.79534495 -2.5660253 -2.9533348 3.1373296 -2.1186702 0.23618144 -1.0363338 -1.2126911 -0.9542006 -0.65243423 1.5940425 -0.6815525 1.0308826 2.1110115 -1.7490479 -3.6069272 -0.47155336 -4.930647 -2.3565736 -5.6088204 9.338333 1.6279649 -1.9764155 5.958749 -7.247624 -10.425937 14.685877 -1.5213919 -8.984825 -22.182676 2.762329
GO:0001533 -0.9176126 1.1887206 -0.08526488 1.9953128 4.838455 -2.0778596 0.9755681 1.6296204 2.113906 0.72829777 -0.47077116 -0.70668083 1.6109769 0.3732482 3.161385 2.5878494 -4.2240534 -0.7344845 4.5154176 3.2434294 0.35221922 -0.3064954 5.2797766 -0.39889193 3.2175496 0.5502666 -1.018772 -3.4167395 -3.637433 1.9278297 -0.88646656 0.20010547 -0.08785968 2.7942727 -2.1691477 -8.267128 -0.051362887 2.8312118 4.9682074 -0.632247 -0.623277 0.09907356 0.51953894 -8.137681 -3.446953 10.184369 -6.44693 -17.378883 -15.738283 1.7451266
GO:0001534 -0.49759024 -0.9060662 -0.15699953 2.247929 0.846842 -0.9721235 -0.17839533 -2.3321164 -1.4512687 -0.4704504 -0.6393043 -1.5181974 3.2896407 0.74829227 1.0649164 2.1204424 -2.1334012 1.0298171 2.6870837 1.086408 -0.96021205 -2.4034638 1.4761757 0.25964156 0.26286814 -0.9179308 0.036268894 -2.085498 -0.19171996 1.7936289 -0.45414698 1.8317859 2.1696923 -4.82247 -1.3638073 0.4565665 -2.117736 -0.3051403 -1.7407507 3.7417762 0.77828854 -2.7268732 6.1685185 -4.5637712 -12.6940365 8.6645975 6.9984455 2.4838784 -13.265944 37.968227
GO:0001535 0.6605166 -2.5322871 -0.29979476 1.5146328 0.13679066 -0.6662038 -1.1657425 -1.910924 -1.0298045 -1.2772038 -0.5280917 -0.63935125 1.469005 -0.15510812 -0.50415605 0.12095998 0.08186919 0.58786464 -0.56227833 -0.30521896 0.054118544 -1.6030545 -1.357471 0.57799524 -1.2350973 -1.1371847 -0.11276083 -0.79383826 1.0739037 0.5704478 0.3725474 1.8113872 0.8325383 -5.3383617 -0.14237033 2.7508123 -0.38392666 1.4289838 -0.1395482 0.51038164 0.6441153 -3.9397004 7.41605 -2.3615527 -14.46349 7.3134193 11.100833 9.943791 -14.70226 40.959667
GO:0001536 0.7828895 -2.455045 -0.42901212 1.914201 0.6000427 -0.46570516 -1.2467735 -1.903475 -1.0821884 -1.3876314 -0.31526953 -0.7996618 2.4953432 0.13555855 -0.3331767 0.33025256 -0.06980186 1.0543365 -0.6249276 0.040462613 -0.06892507 -1.505423 -1.2333118 1.0329258 -0.35265815 -2.23135 0.5305283 -1.3197293 0.7635851 1.843722 -0.015198751 1.121226 2.538538 -4.294322 2.1203055 2.2712176 -1.0378519 1.0436267 -0.061251648 -0.05944181 -0.10026726 -2.8688886 5.200455 -3.44612 -12.526476 3.981937 10.155267 5.6802607 -6.800513 65.45493
GO:0001650 -1.4912733 -2.7993567 1.6197988 0.9842608 -0.40451187 0.50295997 1.018351 1.0315564 -0.8322343 -1.0093625 -3.1237016 -1.898963 1.522329 -0.3934425 -0.02040402 0.5803374 9.083879 0.21520567 2.5014405 0.9886634 -2.3984375 2.0442746 0.32112482 4.2980647 -0.42900077 -2.7192454 0.5093284 -1.0398368 0.94490314 0.9342588 0.0025836388 2.6456244 1.5926859 -2.071956 -1.1200821 -0.40188617 -1.0375121 -5.459194 1.568046 0.61464995 4.941833 2.412942 3.877834 -1.9606788 -8.512932 4.8639765 5.878059 1.2923291 -12.139901 23.955387
GO:0001651 -1.0339317 -3.1127937 1.079403 1.5437207 -0.6408729 -0.23280813 1.2459315 2.0699754 0.4300431 -1.3572446 -3.712021 -1.9700263 2.8727815 -1.3047543 -0.55829304 1.467125 9.097393 -0.090041816 2.6728737 3.0215015 -3.100863 5.212464 -0.028397277 1.4299523 -2.0241256 -2.51941 -1.0498428 -1.0440824 -0.67241365 0.8955491 -0.15857206 2.6792 1.5726719 -1.8877213 -1.9040477 0.12811601 -0.1482712 -5.2597814 1.270112 1.7457919 4.2324233 1.3543656 4.2046046 -1.388376 -9.249535 6.096136 5.3445954 2.2846327 -14.294587 15.383732
GO:0001652 -1.7354392 -2.7628279 1.4659226 0.5184251 -0.5442766 -0.0786883 1.201979 1.7196418 0.19910817 -1.2383761 -3.3460836 -1.3205658 2.253001 -1.4192235 -1.3523204 1.1886166 8.712755 0.18890394 2.0112967 3.087542 -2.745803 4.9013524 -0.42674473 1.7172163 -2.585258 -3.229611 -1.2649902 -1.0212053 -0.5462434 0.89569676 -0.288227 2.9259653 1.233346 -1.6695896 -1.6718396 0.05537437 -0.31380412 -5.074633 1.1792657 1.9355094 3.968719 1.3897644 4.041602 -1.5827894 -9.1512165 5.679654 5.380583 1.6528151 -13.252819 18.340334
GO:0001669 -0.6672807 0.26337895 0.49497908 -1.8295162 1.8629614 -1.404968 0.3971658 0.329252 1.7327111 -1.2417197 -1.4063389 -0.12458002 -0.20973323 -1.0505198 0.07829613 0.17509173 0.40803754 -1.0926063 -1.5569037 1.0923535 -0.058086373 0.4215213 0.029501842 -0.7377681 -0.17944942 -0.93546677 0.28324276 -1.1796467 -1.170029 0.37787348 0.32499844 0.87824816 -0.89815444 5.6031203 2.151223 -6.638889 -4.6416125 3.477382 6.2509055 -3.686716 -0.4631618 -0.9433284 3.5276546 -1.7802883 -9.464971 -1.657298 -8.252414 6.1563907 -11.107121 3.2844284
GO:0001673 -0.53450936 0.11198635 -1.5024897 1.2075014 0.4713259 -5.3136907 -6.90353 5.082452 -0.9801999 -6.3930697 -0.9209163 -2.541754 1.98351 3.131243 -2.9650104 -2.5902824 3.1207585 -5.3410735 -0.72753245 -2.367682 -2.1555727 0.007746607 3.568692 1.5191965 -0.2374049 -0.76268107 4.252904 0.5999197 -3.2002027 -1.6600568 0.23827283 -0.51611316 0.5162371 -1.3736794 1.2385821 2.798071 4.672016 4.1479154 7.8404374 -6.2200713 2.1728306 2.056547 -0.33349514 -2.6337225 -1.0288856 3.6351156 -2.6023219 -10.496332 -9.721501 1.4582454
GO:0001674 -0.4368955 0.06313562 -1.0121937 3.1392622 -5.1885014 -2.4926972 -3.9024892 5.856721 -3.8631551 -6.2997227 -3.7790573 -3.943643 1.1407777 -0.32843944 -3.8310359 -0.3480436 1.4406927 -3.5070713 -2.7052815 -0.59203595 -0.28378737 1.940531 3.597672 2.4570389 2.1236787 -0.38418776 2.007672 -1.0272385 -1.5783733 -0.7719121 0.21228239 -0.9653084 0.92430496 -2.4184415 2.0708253 6.026783 6.7073355 4.097862 6.963138 -8.116747 -0.29021317 0.53955966 0.06761325 -3.8295314 0.15379934 4.757768 -4.136533 -14.270127 -10.902542 1.3013244
GO:0001725 1.7413769 -3.2336104 -1.5328015 2.7201734 1.0748491 0.8469144 0.22579025 -0.31257662 1.3222578 -0.12772879 0.9915857 -0.8668331 4.362475 0.9391694 1.5721952 -0.022083355 -0.878802 1.160144 0.0008508798 -0.48542073 -1.0285555 -1.189562 -0.301262 -1.765199 0.46425933 -1.0604538 0.921817 -1.9522809 -0.012525443 1.3441784 -8.429754 0.70493275 0.8623112 -7.908502 2.3342602 -0.91882056 -1.4001395 -1.629099 1.9907969 -0.2886437 3.9450896 -7.1826353 -5.612714 -3.8489134 -6.60879 1.8414458 6.8597574 1.3278675 1.3263866 91.721725
GO:0001726 -1.8010887 1.1025653 -0.004433176 0.5486181 3.0508103 -1.456922 -1.5733583 2.9928513 1.6596998 -1.4920918 -1.0204303 1.4924239 -0.3002442 -0.9244179 2.333081 -1.8306485 1.9375598 -0.26510146 -1.4337496 1.425119 3.6132946 0.42144537 0.51066804 2.3397148 1.5729114 -1.6329085 -1.0418277 -2.5404074 0.2567523 -0.36885095 0.4507005 0.15361087 -2.983709 3.6428967 2.1262932 -5.802959 3.9760048 6.3447943 10.054402 -9.654974 -2.1268713 -0.46760693 -0.7912812 -4.2309713 -0.5483408 3.8603265 -2.6915467 -10.010336 -9.69724 0.9499197
GO:0001739 -8.459425 8.841924 0.49102548 -0.4492514 -4.3551946 4.625353 1.2277733 -1.8424797 -2.7987936 5.094323 -5.45981 0.75440687 3.892379 5.3891664 3.9889894 2.9274385 -7.6410103 -0.117728785 5.16095 1.4530666 -3.229191 -7.368507 8.49371 -0.1514373 4.725854 -2.740116 1.4897816 -4.224415 -3.0013342 1.5986699 -1.4480042 -0.6777811 7.2439165 -4.128971 -0.5788596 -0.8152984 0.38690045 -2.1564262 4.448395 -0.3613247 6.593403 4.4910283 -0.4286951 -0.8972013 -5.988684 -0.2582972 4.7300615 -4.1011367 -1.7163174 71.741585
GO:0001740 -5.57284 3.964584 -1.259028 3.4218318 -4.395712 1.3114305 -2.2491498 6.754396 -6.1185822 -4.865011 -2.8821719 -3.6162834 2.3052154 1.9434301 -1.3919529 -0.54423195 -1.5463119 -4.479312 1.0928696 0.73928267 -1.9296224 -3.933362 7.0194745 1.6283981 4.4365697 -2.1725879 3.3236237 1.2437227 -2.7576566 -1.0723981 -0.3643372 -1.2575028 2.291982 -2.6003914 0.031128611 3.0635881 6.359288 1.1752893 6.6016884 -5.0837045 3.8612678 3.2575648 -0.097607695 -1.0632174 -0.86419946 3.5897224 -2.5091224 -8.419424 -9.2643795 1.8525106
GO:0001741 -8.2721 6.0515575 0.8084982 3.134971 -2.422526 4.5708013 2.281301 3.291411 -3.599127 -0.33698452 -2.7197125 -3.2241871 1.7285374 2.4766688 0.36074996 3.7300324 -7.329525 -2.3643255 2.1811345 3.1985147 -3.0359068 -6.6164465 7.989897 -1.7610986 10.124457 -5.044238 0.8954944 4.990306 -4.077373 1.0049405 -1.2742792 -3.029857 4.656938 -4.283419 -0.29148507 -0.77637035 1.7653277 -0.65436435 4.0063763 0.90675884 8.092604 6.9044 -0.8974116 -0.18293698 -5.7734504 0.4610185 3.7282085 -3.376639 -1.8167064 75.86632
GO:0001750 2.8564367 -2.8746915 -2.35716 0.91344595 1.6716491 1.0323851 2.6598434 1.2525567 0.9733226 -1.9844116 1.1982068 -1.4164249 3.4800127 -1.3671046 -1.8333431 3.017231 0.7589964 0.212374 -0.4681783 3.988155 -0.7425955 -1.7395737 -1.1307794 -0.88717794 1.7580695 -3.69138 -1.0765765 2.5926182 0.7450948 -3.9393191 1.308793 -2.812681 1.0084363 1.2362971 0.39665744 -10.305532 -2.9982157 2.8815706 6.124142 0.4959546 2.7604084 0.90086454 2.5717442 -3.109883 -9.185481 5.7454 4.082697 0.31084722 -8.266969 43.05977
GO:0001772 -1.2659923 -0.017029816 0.3755216 0.24999613 1.1923239 -0.010426931 2.4428551 -0.03112155 0.08111709 1.1926785 -0.14774701 -1.7795674 1.5500636 -0.10680939 -1.4586606 2.085722 -1.4888465 0.696956 4.4044094 2.877977 0.33555445 -0.3173887 2.6728535 2.286642 -0.38309008 -0.58684725 -0.039368104 -1.3800551 -1.4755158 0.040773623 -0.5511414 2.6556518 1.8701633 -0.8001114 -1.7001797 -0.86176914 4.767027 6.5543733 8.278707 -7.092048 -1.0930012 0.3545493 -1.1330264 -2.0006564 -3.1704972 4.5852423 -0.2338213 -6.5034494 -12.543288 1.1180772
GO:0001891 -0.71148026 -0.42880434 0.6095348 0.2789136 -0.30359584 0.35083297 1.6935316 0.6938847 0.40942284 0.7392234 -0.51815975 -1.2426331 1.057413 -0.62841535 -4.159015 2.1068532 -0.962067 0.8222972 3.6292815 2.2796195 1.1238856 0.20189779 3.724303 2.8831193 -0.7719397 -1.7670811 -1.2044275 -2.484294 -1.7867044 1.9943519 -0.44579664 0.44184327 1.6173128 -1.6676974 -4.107745 -1.6194248 0.6893888 4.7758465 7.001136 -3.1844037 2.3872764 0.03970655 2.466428 0.958451 -5.145151 4.3332534 1.9604201 -0.8968709 -11.177694 1.5554638
GO:0001917 -0.6917826 -1.8659389 -0.34274215 -1.6483053 1.040657 2.150699 3.4198227 0.40482074 1.0102413 -0.12662333 0.9424266 -0.6415348 0.66357094 -1.5918459 -5.579492 0.0022113214 3.0682824 0.99379534 0.2015185 2.830769 1.7444706 -0.4866977 -2.2169752 3.406118 -0.8518575 -5.944515 -1.7142757 3.4343228 0.89297366 0.6732237 0.38834903 -0.16329865 0.3181356 -4.4241505 -2.2495239 -4.3136754 -1.1789922 3.2614186 4.5818996 -0.2528065 2.537037 0.010747359 3.5603476 -1.5817978 -10.73976 4.7769136 7.7550488 3.92302 -9.109745 51.740097
GO:0001931 -1.2195101 1.0246911 0.29182884 0.38796428 2.2072058 -1.5873717 -1.0625156 1.9601966 1.0627966 -0.47709322 -0.3484637 0.11452763 -0.36125568 -0.30241144 1.7237481 -0.18232425 -0.11074919 -0.019007444 -0.18616414 1.4394666 2.3171098 0.5300233 1.3339792 1.5053668 1.1945498 -0.3813301 0.10014703 -2.2428513 -0.9348111 -0.15834963 0.20702699 0.03514673 -2.3517535 3.8995984 1.7580677 -6.028453 3.7354705 6.6373496 10.505378 -9.244723 -1.4319506 -0.21388249 -0.7678262 -3.5258722 -0.9680498 3.600534 -2.632418 -9.921578 -10.064781 1.0310683
GO:0001939 1.9001006 0.5016416 1.4360276 2.7721443 -3.5206409 -2.9585068 -2.6196387 0.016817547 0.47100297 -4.047095 -0.14097738 -1.6020943 0.0045486665 -2.5114906 -3.5398757 -1.1903281 1.5368257 0.3473495 -1.872675 -0.43612543 2.8775926 0.43412408 2.7002213 0.65878123 3.6343963 -1.8490422 -1.0124999 -3.541235 -3.0018315 4.5173855 -1.1454821 1.0516102 3.8095264 -2.2021606 3.3112507 -4.304746 -3.8148758 1.4302275 3.761222 -1.703466 0.60963005 1.8521545 0.09783285 -2.5509243 -5.0220966 -2.3010602 6.7759695 -4.2436514 5.5222754 107.57171
GO:0001940 2.4474208 1.1766078 1.6613575 3.1789765 -2.933384 -2.8231137 -2.7949953 0.58060366 0.15233153 -3.8901112 -0.107642025 -1.6382602 -0.07732866 -2.1654785 -3.6420705 -1.0899984 1.3768599 0.040129043 -1.9208338 -0.4418009 2.4213135 0.6460415 3.0985804 0.6885484 3.4032097 -1.8768888 -0.56384194 -3.5195372 -3.2260382 4.4375205 -1.2382277 1.1381214 4.0163565 -2.1654422 3.122662 -4.1042523 -3.791567 1.2702478 3.7514315 -1.563097 0.8292967 2.1280124 0.29728824 -2.5416832 -5.035946 -2.0090334 6.4648323 -4.3785024 5.0424395 102.62548
GO:0002079 -1.401678 2.9836314 1.8705349 2.3713696 1.2695028 0.8197855 0.14864206 2.5439773 -1.7312413 -5.8080435 0.15982091 1.4378382 0.40570804 -2.6790972 2.9600759 -2.1014416 4.167023 1.4755552 -0.637194 -2.8340607 1.0263268 -6.594446 -0.001936724 6.556876 3.0704815 -2.8004627 4.544831 -2.4436374 2.152152 0.40031797 -0.003250942 3.7861457 -1.1390483 3.643806 4.8396907 -11.925179 -6.782179 0.9879081 10.024701 -4.979654 -0.2343152 2.7044501 0.015330975 -5.3549504 -10.435056 -5.8786893 -7.382703 1.444486 -2.6779091 60.9978
GO:0002080 -1.9964044 2.4410617 1.7335476 1.0582578 2.063236 0.027473757 -0.55790013 3.5715692 -0.15949552 -4.53834 -0.72293025 2.3447518 -1.1545165 -2.6260552 2.977535 -2.4927151 3.672651 0.30305764 -0.77933764 -1.3165503 2.7598445 -5.309341 0.14592052 5.081152 2.9180136 -1.9054362 1.2693988 -3.3795297 1.9229215 -1.1899278 0.99406755 3.8052826 -4.7774367 3.9705105 0.92836493 -12.097946 -5.9163017 3.8220775 12.146492 -1.254743 0.8969648 1.1609417 2.078531 -3.2994134 -8.942284 -3.065483 -7.0215015 5.649268 -13.191705 14.326143
GO:0002081 -0.6369599 2.672591 1.635173 -0.2988266 3.6342752 1.3617244 0.63546336 4.079441 1.4139875 -2.50527 -0.9419799 1.8081874 -0.63257796 -2.064795 3.1992152 -1.6645886 2.0266488 -1.1860654 -1.4481853 0.74272543 3.8919404 -4.209221 0.7463645 4.527758 2.2819498 -1.6635716 0.97849786 -3.0823069 1.214145 -0.10118513 0.66975564 2.7678046 -4.346051 7.52477 2.5537064 -15.761265 -8.306017 3.1465552 12.538971 -5.937807 -0.55435866 1.9957535 0.28674063 -4.261053 -8.97774 -5.093564 -11.060737 2.6919515 -6.6222935 31.766703
GO:0002095 -1.327467 1.3143252 0.18550667 0.7973232 2.505341 -0.4416036 0.21922415 1.2662482 0.09405284 0.52850574 -2.8996603 -0.80252385 1.3181031 0.6324143 2.248679 -0.6595485 -1.292941 -0.6557386 0.04882893 2.75916 -0.047873206 0.7952463 2.6954203 -2.147799 0.8409541 -0.81496525 -1.463938 -0.30466703 -1.2350806 -0.21575138 2.1627145 6.2238064 1.4968158 3.5428157 0.0066880872 -5.482506 -1.4811722 5.4121246 4.6585608 -3.9629762 2.1967058 -9.059003 -7.519647 0.0655146 -6.984683 8.854434 3.8227057 7.0720882 -19.093079 1.9163932
GO:0002096 -0.15085141 -2.7709367 -1.6345383 4.882522 1.8776097 -3.3672128 -3.7643132 0.7596506 0.2936496 -2.5755415 -3.1919782 0.71340257 2.8040476 -0.3738048 2.3293664 -0.33772436 2.7400827 -0.3871912 0.25326118 2.2643652 0.89747334 -0.8383365 1.1025958 -0.26181197 0.9360254 -1.7502953 -1.1015542 -0.2470172 -0.47437227 -1.416528 -0.4125049 5.0595455 1.8327938 1.4815586 0.3565123 -2.2182493 -1.3563668 2.1244776 -0.2331293 0.89959824 -3.520154 -0.009369146 -1.2910491 -5.4503555 -4.4180813 7.9765573 -2.5709848 -9.257395 -13.361212 1.1474392
GO:0002102 -1.886011 -1.614301 -0.13448383 3.5284526 3.134158 -2.7467418 -0.3859496 -2.3494852 0.1085818 1.2694387 -0.7399821 -1.7340267 2.0361655 1.405988 1.9556905 4.5755296 -2.9067562 -0.46365014 6.037873 2.9265976 -4.0125647 -2.7520943 1.5637121 -0.54870987 5.6284804 -2.9555066 -2.3182466 0.97946036 -0.8973155 -0.70911485 0.0025389732 -1.4544406 -2.7327836 0.10676141 -0.12678482 1.7060934 6.498191 5.2686567 6.653909 -4.0271373 4.5922656 2.783824 -0.6453812 -0.79826707 -3.0456944 4.1586547 -2.5894113 -6.730384 -10.9675 1.795339
GO:0002111 -4.108289 -2.001127 0.9170877 5.6069956 1.3973259 -3.5779607 -2.0117426 -2.745722 -5.55675 0.37723562 1.8794792 -3.5409026 7.389194 -1.8795373 4.2978625 8.171307 -4.3231516 -1.7708404 5.8954473 1.6815038 -1.2686784 -2.2150247 6.8447995 -0.33760294 2.9630487 4.9484916 0.22107504 -4.643764 -2.5400627 2.4426599 -0.4166689 3.086235 2.1972606 -11.631354 -9.149778 -0.61721236 0.92541826 2.3799639 4.9530387 2.3105485 4.779102 0.17443085 3.8477743 0.612525 -11.735553 6.442251 7.826004 6.3752723 -16.113375 26.541847
GO:0002116 -1.0320776 -1.667055 -0.023827666 1.7222009 -1.1107849 -0.24156632 -0.49103236 -2.0415149 -1.5943584 2.5191672 -0.81385505 -1.409487 -1.7164485 0.8724571 -1.6515816 -2.7239196 -0.016725896 -0.907227 -1.5339159 1.1147352 2.9063053 -0.03572429 0.5974517 -1.5533656 -2.7095406 1.1324313 -1.859416 2.2877116 0.8690153 -4.5332866 -0.04884898 8.730342 1.8221977 -7.614924 -5.82998 1.5618252 2.3320246 6.1739297 3.353337 -0.24834463 -2.3324804 1.67587 -3.324046 0.83357835 -6.0195265 5.465059 4.955199 3.6589746 -18.06751 1.8005396
GO:0002133 3.0504367 -5.595064 -2.7758927 4.7763767 -0.5618503 0.18749057 -2.0211878 -0.20230415 -0.44175288 -0.38605484 -0.42318016 -0.2545831 3.7674305 0.48032352 1.3166586 1.172146 -0.764812 0.17761858 -0.6231753 -0.13208821 -0.679033 -0.6236006 -1.6186646 -1.1473507 -1.5477446 0.48766735 -0.011707488 -1.0116274 0.13258746 -0.13864551 0.20753738 2.2097728 0.47589186 -7.194187 -2.0903046 1.259419 0.6095805 0.9632596 0.39895 1.220175 0.20011455 -3.8887398 6.3005953 -2.1499214 -13.9619875 6.4860864 9.800932 10.258404 -15.351344 36.665234
GO:0002139 -1.4252232 -0.7532164 1.0473132 -0.57193774 1.7347633 0.118595764 2.0614166 -0.47094807 0.66055775 0.39340082 0.32638806 -1.4408509 0.34994617 1.2594953 -2.2518613 0.2493452 -0.53946954 0.32980052 1.1275167 -0.63993853 -0.16049986 0.38767383 1.2747808 1.7920437 -1.103963 -2.4510767 -0.21845116 -0.34896234 -1.0803987 2.179348 -0.5115901 0.4798777 2.6959095 -3.3976188 -2.0283992 -0.024455773 -2.7487812 1.8620204 2.5432389 1.1749247 2.619377 1.4498214 0.80508083 -1.6149793 -5.0076246 1.3520168 3.075395 -4.0528455 -2.2862532 40.97956
GO:0002140 -1.0696987 -0.5604276 2.5777867 -0.39244443 3.4946005 -1.0533482 1.2641407 -0.8112278 0.07146355 0.15033624 0.2837279 -2.1982365 0.54040694 1.5626472 -0.66703635 0.51696736 -3.2279975 0.45122272 -0.007766027 -1.0434724 -1.560518 -0.5258037 2.773133 -1.880896 1.6980374 -0.92574114 1.8609816 -1.9202591 -2.7792583 2.8701158 -1.0591952 0.8513839 2.2348819 -0.87427217 1.6012865 -3.7361135 -4.9491377 0.011772391 1.5082612 2.2007172 0.628829 1.6419988 0.23492096 -5.6449533 -5.8452735 0.7839042 3.8957505 -7.954255 2.4714444 83.88563
GO:0002141 0.009910346 0.33421683 1.7458748 1.0357175 2.4198143 -0.99700266 0.75289434 0.4752855 0.6678212 -0.84646446 0.07692583 -2.3305254 0.8568951 1.43079 -0.5895781 1.7876849 -3.9954004 -1.0937365 1.6876878 -0.6346477 -1.0581359 -1.2435619 4.295108 -1.488112 2.0677342 0.61721504 0.8998963 -0.68634164 -3.3371012 2.1154997 -1.2147757 1.8904248 2.2649486 -5.530186 -1.1295359 -1.1320302 -5.0920334 -2.9229627 -3.1246521 7.955667 1.6608484 1.6547185 1.1162437 -8.179445 -6.344352 6.6332984 -0.7995708 -14.717243 -4.620754 58.558723
GO:0002142 3.3473687 -3.648066 -2.2124777 4.390257 0.19829807 0.46750444 -1.2768325 1.2917267 0.72046983 -0.8999586 -0.63370144 -0.51157135 3.6057749 1.1426666 0.73735374 1.3059384 -0.7905746 -0.6253513 -0.13309072 -0.5421883 -1.2352557 -0.589687 0.6182014 -1.5302279 0.10759854 -0.0031210154 0.6907606 -0.3788101 -1.5746039 0.63234985 -0.48342055 1.9753296 1.3458246 -4.60119 -1.0387396 -0.49845415 -3.13108 -2.2853677 -3.7929547 6.5101466 -0.3624469 -1.8823527 4.7578993 -6.6062202 -9.940086 8.961446 2.39593 -4.3748937 -11.119678 34.88993
GO:0002144 4.291916 -3.9254155 -3.0983138 6.3000712 0.30537075 0.6438158 -1.7611866 1.2516468 -0.42963275 -0.91460824 -0.009329543 -0.7399253 4.499177 0.71483654 1.2906626 1.8324815 -1.1549901 -0.46136013 -0.42979097 -0.48041928 -1.4436902 -0.3955935 -0.37227187 -0.8707484 -0.4208102 0.11850694 1.0266625 -0.84843487 -0.4139042 0.4076915 -0.0034491695 1.5709579 1.9234176 -4.701878 -0.20464914 1.6329944 0.73892015 0.76430476 -1.2357774 0.44158605 -0.31199533 -4.1818323 6.665612 -2.3566763 -14.482768 7.8135586 10.944762 11.518352 -16.6173 36.19862
GO:0002167 4.570399 -2.475112 -1.271777 3.651415 0.5445099 0.6792317 -1.4402142 1.3415394 0.35843804 -1.551781 0.18011673 0.11848992 2.6881444 -0.92517924 1.6895698 1.8598003 -0.23739684 1.2063257 1.1665603 -0.681917 -1.1793491 -1.4501394 -0.95091724 -1.2550755 -1.449186 1.8769436 -0.046909917 0.19346033 -0.6512427 -0.31652728 0.11682307 3.4237454 1.9962989 -4.9722486 -3.6754503 -1.6927744 -2.1260407 -1.8921584 -5.6335745 8.032842 -1.9194221 -3.4192038 4.512387 -7.241458 -9.352126 11.367084 0.21618986 -4.622448 -18.188013 10.26848
GO:0002169 -0.11636222 -0.1185378 0.895416 -1.1887084 0.19236678 2.0932407 -1.3964065 -0.16419129 0.7977268 -0.77713263 0.09234765 -1.3670918 -2.5504894 -2.5967839 -0.589709 -0.92943686 -0.71852195 0.096089594 0.3310677 -0.7564353 1.1938802 -0.10251913 -0.5728356 0.7628315 -0.49726656 -0.49078426 1.9167416 -1.3851379 -0.34428713 1.900703 0.51718897 0.09153372 -3.5006917 -4.969419 0.06978551 3.3041928 0.3822206 0.49347126 6.4367495 13.059324 5.0011744 -20.472185 -12.27789 -4.2860856 5.2805324 2.1065543 8.415829 17.373676 -31.157658 3.675999
